digraph Tree {
node [shape=box] ;
0 [label="심결가산율 <= 1.5\ngini = 0.5\nsamples = 454339\nvalue = [[227170, 227169]\n[227169, 227170]]"] ;
1 [label="부상병코드 <= 13.5\ngini = 0.178\nsamples = 194063\nvalue = [[19210, 174853]\n[174853, 19210]]"] ;
0 -> 1 [labeldistance=2.5, labelangle=45, headlabel="True"] ;
2 [label="주상병코드 <= 7.5\ngini = 0.141\nsamples = 175650\nvalue = [[13455, 162195]\n[162195, 13455]]"] ;
1 -> 2 ;
3 [label="진료과목코드 <= 1.5\ngini = 0.233\nsamples = 42096\nvalue = [[5661, 36435]\n[36435, 5661]]"] ;
2 -> 3 ;
4 [label="주상병코드 <= 6.5\ngini = 0.089\nsamples = 11153\nvalue = [[518, 10635]\n[10635, 518]]"] ;
3 -> 4 ;
5 [label="주상병코드 <= 3.5\ngini = 0.077\nsamples = 10928\nvalue = [[438, 10490]\n[10490, 438]]"] ;
4 -> 5 ;
6 [label="주상병코드 <= 1.5\ngini = 0.186\nsamples = 3340\nvalue = [[346, 2994]\n[2994, 346]]"] ;
5 -> 6 ;
7 [label="시도코드 <= 41.5\ngini = 0.126\nsamples = 2800\nvalue = [[189, 2611]\n[2611, 189]]"] ;
6 -> 7 ;
8 [label="시도코드 <= 28.5\ngini = 0.07\nsamples = 1951\nvalue = [[71, 1880]\n[1880, 71]]"] ;
7 -> 8 ;
9 [label="부상병코드 <= 9.5\ngini = 0.033\nsamples = 963\nvalue = [[16, 947]\n[947, 16]]"] ;
8 -> 9 ;
10 [label="gini = 0.056\nsamples = 312\nvalue = [[9, 303]\n[303, 9]]"] ;
9 -> 10 ;
11 [label="시도코드 <= 18.5\ngini = 0.021\nsamples = 651\nvalue = [[7, 644]\n[644, 7]]"] ;
9 -> 11 ;
12 [label="gini = 0.03\nsamples = 328\nvalue = [[5, 323]\n[323, 5]]"] ;
11 -> 12 ;
13 [label="gini = 0.012\nsamples = 323\nvalue = [[2, 321]\n[321, 2]]"] ;
11 -> 13 ;
14 [label="시도코드 <= 38.5\ngini = 0.105\nsamples = 988\nvalue = [[55, 933]\n[933, 55]]"] ;
8 -> 14 ;
15 [label="gini = 0.23\nsamples = 257\nvalue = [[34, 223]\n[223, 34]]"] ;
14 -> 15 ;
16 [label="연령대코드 <= 9.5\ngini = 0.056\nsamples = 731\nvalue = [[21, 710]\n[710, 21]]"] ;
14 -> 16 ;
17 [label="성별코드 <= 1.5\ngini = 0.022\nsamples = 451\nvalue = [[5, 446]\n[446, 5]]"] ;
16 -> 17 ;
18 [label="gini = 0.036\nsamples = 216\nvalue = [[4, 212]\n[212, 4]]"] ;
17 -> 18 ;
19 [label="gini = 0.008\nsamples = 235\nvalue = [[1, 234]\n[234, 1]]"] ;
17 -> 19 ;
20 [label="gini = 0.108\nsamples = 280\nvalue = [[16, 264]\n[264, 16]]"] ;
16 -> 20 ;
21 [label="주상병코드 <= 0.5\ngini = 0.239\nsamples = 849\nvalue = [[118, 731]\n[731, 118]]"] ;
7 -> 21 ;
22 [label="연령대코드 <= 5.5\ngini = 0.307\nsamples = 485\nvalue = [[92, 393]\n[393, 92]]"] ;
21 -> 22 ;
23 [label="gini = 0.35\nsamples = 221\nvalue = [[50, 171]\n[171, 50]]"] ;
22 -> 23 ;
24 [label="gini = 0.268\nsamples = 264\nvalue = [[42, 222]\n[222, 42]]"] ;
22 -> 24 ;
25 [label="gini = 0.133\nsamples = 364\nvalue = [[26, 338]\n[338, 26]]"] ;
21 -> 25 ;
26 [label="성별코드 <= 1.5\ngini = 0.412\nsamples = 540\nvalue = [[157, 383]\n[383, 157]]"] ;
6 -> 26 ;
27 [label="gini = 0.352\nsamples = 206\nvalue = [[47, 159]\n[159, 47]]"] ;
26 -> 27 ;
28 [label="gini = 0.442\nsamples = 334\nvalue = [[110, 224]\n[224, 110]]"] ;
26 -> 28 ;
29 [label="연령대코드 <= 7.5\ngini = 0.024\nsamples = 7588\nvalue = [[92, 7496]\n[7496, 92]]"] ;
5 -> 29 ;
30 [label="gini = 0.122\nsamples = 214\nvalue = [[14, 200]\n[200, 14]]"] ;
29 -> 30 ;
31 [label="부상병코드 <= 10.5\ngini = 0.021\nsamples = 7374\nvalue = [[78, 7296]\n[7296, 78]]"] ;
29 -> 31 ;
32 [label="부상병코드 <= 7.5\ngini = 0.016\nsamples = 6767\nvalue = [[56, 6711]\n[6711, 56]]"] ;
31 -> 32 ;
33 [label="연령대코드 <= 15.5\ngini = 0.028\nsamples = 2892\nvalue = [[41, 2851]\n[2851, 41]]"] ;
32 -> 33 ;
34 [label="부상병코드 <= 5.5\ngini = 0.023\nsamples = 2431\nvalue = [[28, 2403]\n[2403, 28]]"] ;
33 -> 34 ;
35 [label="연령대코드 <= 12.5\ngini = 0.018\nsamples = 2210\nvalue = [[20, 2190]\n[2190, 20]]"] ;
34 -> 35 ;
36 [label="gini = 0.012\nsamples = 1159\nvalue = [[7, 1152]\n[1152, 7]]"] ;
35 -> 36 ;
37 [label="gini = 0.024\nsamples = 1051\nvalue = [[13, 1038]\n[1038, 13]]"] ;
35 -> 37 ;
38 [label="gini = 0.07\nsamples = 221\nvalue = [[8, 213]\n[213, 8]]"] ;
34 -> 38 ;
39 [label="연령대코드 <= 16.5\ngini = 0.055\nsamples = 461\nvalue = [[13, 448]\n[448, 13]]"] ;
33 -> 39 ;
40 [label="gini = 0.049\nsamples = 238\nvalue = [[6, 232]\n[232, 6]]"] ;
39 -> 40 ;
41 [label="gini = 0.061\nsamples = 223\nvalue = [[7, 216]\n[216, 7]]"] ;
39 -> 41 ;
42 [label="부상병코드 <= 9.5\ngini = 0.008\nsamples = 3875\nvalue = [[15, 3860]\n[3860, 15]]"] ;
32 -> 42 ;
43 [label="연령대코드 <= 10.5\ngini = 0.005\nsamples = 2967\nvalue = [[7, 2960]\n[2960, 7]]"] ;
42 -> 43 ;
44 [label="gini = 0.016\nsamples = 251\nvalue = [[2, 249]\n[249, 2]]"] ;
43 -> 44 ;
45 [label="시도코드 <= 38.5\ngini = 0.004\nsamples = 2716\nvalue = [[5, 2711]\n[2711, 5]]"] ;
43 -> 45 ;
46 [label="gini = 0.0\nsamples = 1140\nvalue = [[0, 1140]\n[1140, 0]]"] ;
45 -> 46 ;
47 [label="gini = 0.006\nsamples = 1576\nvalue = [[5, 1571]\n[1571, 5]]"] ;
45 -> 47 ;
48 [label="연령대코드 <= 14.5\ngini = 0.017\nsamples = 908\nvalue = [[8, 900]\n[900, 8]]"] ;
42 -> 48 ;
49 [label="연령대코드 <= 12.5\ngini = 0.009\nsamples = 684\nvalue = [[3, 681]\n[681, 3]]"] ;
48 -> 49 ;
50 [label="gini = 0.014\nsamples = 411\nvalue = [[3, 408]\n[408, 3]]"] ;
49 -> 50 ;
51 [label="gini = 0.0\nsamples = 273\nvalue = [[0, 273]\n[273, 0]]"] ;
49 -> 51 ;
52 [label="gini = 0.044\nsamples = 224\nvalue = [[5, 219]\n[219, 5]]"] ;
48 -> 52 ;
53 [label="연령대코드 <= 13.5\ngini = 0.07\nsamples = 607\nvalue = [[22, 585]\n[585, 22]]"] ;
31 -> 53 ;
54 [label="gini = 0.122\nsamples = 277\nvalue = [[18, 259]\n[259, 18]]"] ;
53 -> 54 ;
55 [label="gini = 0.024\nsamples = 330\nvalue = [[4, 326]\n[326, 4]]"] ;
53 -> 55 ;
56 [label="gini = 0.458\nsamples = 225\nvalue = [[80, 145]\n[145, 80]]"] ;
4 -> 56 ;
57 [label="진료과목코드 <= 12.5\ngini = 0.277\nsamples = 30943\nvalue = [[5143, 25800]\n[25800, 5143]]"] ;
3 -> 57 ;
58 [label="연령대코드 <= 5.5\ngini = 0.31\nsamples = 25211\nvalue = [[4845, 20366]\n[20366, 4845]]"] ;
57 -> 58 ;
59 [label="주상병코드 <= 3.5\ngini = 0.119\nsamples = 4333\nvalue = [[276, 4057]\n[4057, 276]]"] ;
58 -> 59 ;
60 [label="시도코드 <= 44.5\ngini = 0.323\nsamples = 902\nvalue = [[183, 719]\n[719, 183]]"] ;
59 -> 60 ;
61 [label="시도코드 <= 38.5\ngini = 0.238\nsamples = 688\nvalue = [[95, 593]\n[593, 95]]"] ;
60 -> 61 ;
62 [label="gini = 0.286\nsamples = 382\nvalue = [[66, 316]\n[316, 66]]"] ;
61 -> 62 ;
63 [label="gini = 0.172\nsamples = 306\nvalue = [[29, 277]\n[277, 29]]"] ;
61 -> 63 ;
64 [label="gini = 0.484\nsamples = 214\nvalue = [[88, 126]\n[126, 88]]"] ;
60 -> 64 ;
65 [label="주상병코드 <= 6.5\ngini = 0.053\nsamples = 3431\nvalue = [[93, 3338]\n[3338, 93]]"] ;
59 -> 65 ;
66 [label="시도코드 <= 27.5\ngini = 0.167\nsamples = 664\nvalue = [[61, 603]\n[603, 61]]"] ;
65 -> 66 ;
67 [label="gini = 0.256\nsamples = 226\nvalue = [[34, 192]\n[192, 34]]"] ;
66 -> 67 ;
68 [label="gini = 0.116\nsamples = 438\nvalue = [[27, 411]\n[411, 27]]"] ;
66 -> 68 ;
69 [label="시도코드 <= 44.5\ngini = 0.023\nsamples = 2767\nvalue = [[32, 2735]\n[2735, 32]]"] ;
65 -> 69 ;
70 [label="진료과목코드 <= 11.5\ngini = 0.01\nsamples = 2222\nvalue = [[11, 2211]\n[2211, 11]]"] ;
69 -> 70 ;
71 [label="gini = 0.03\nsamples = 267\nvalue = [[4, 263]\n[263, 4]]"] ;
70 -> 71 ;
72 [label="시도코드 <= 30.5\ngini = 0.007\nsamples = 1955\nvalue = [[7, 1948]\n[1948, 7]]"] ;
70 -> 72 ;
73 [label="시도코드 <= 26.5\ngini = 0.011\nsamples = 920\nvalue = [[5, 915]\n[915, 5]]"] ;
72 -> 73 ;
74 [label="gini = 0.004\nsamples = 553\nvalue = [[1, 552]\n[552, 1]]"] ;
73 -> 74 ;
75 [label="gini = 0.022\nsamples = 367\nvalue = [[4, 363]\n[363, 4]]"] ;
73 -> 75 ;
76 [label="연령대코드 <= 3.5\ngini = 0.004\nsamples = 1035\nvalue = [[2, 1033]\n[1033, 2]]"] ;
72 -> 76 ;
77 [label="gini = 0.0\nsamples = 723\nvalue = [[0, 723]\n[723, 0]]"] ;
76 -> 77 ;
78 [label="gini = 0.013\nsamples = 312\nvalue = [[2, 310]\n[310, 2]]"] ;
76 -> 78 ;
79 [label="시도코드 <= 47.5\ngini = 0.074\nsamples = 545\nvalue = [[21, 524]\n[524, 21]]"] ;
69 -> 79 ;
80 [label="gini = 0.109\nsamples = 294\nvalue = [[17, 277]\n[277, 17]]"] ;
79 -> 80 ;
81 [label="gini = 0.031\nsamples = 251\nvalue = [[4, 247]\n[247, 4]]"] ;
79 -> 81 ;
82 [label="시도코드 <= 48.5\ngini = 0.342\nsamples = 20878\nvalue = [[4569, 16309]\n[16309, 4569]]"] ;
58 -> 82 ;
83 [label="주상병코드 <= 1.5\ngini = 0.332\nsamples = 20350\nvalue = [[4273, 16077]\n[16077, 4273]]"] ;
82 -> 83 ;
84 [label="진료과목코드 <= 9.5\ngini = 0.078\nsamples = 1280\nvalue = [[52, 1228]\n[1228, 52]]"] ;
83 -> 84 ;
85 [label="시도코드 <= 41.5\ngini = 0.131\nsamples = 696\nvalue = [[49, 647]\n[647, 49]]"] ;
84 -> 85 ;
86 [label="연령대코드 <= 10.5\ngini = 0.098\nsamples = 485\nvalue = [[25, 460]\n[460, 25]]"] ;
85 -> 86 ;
87 [label="gini = 0.082\nsamples = 209\nvalue = [[9, 200]\n[200, 9]]"] ;
86 -> 87 ;
88 [label="gini = 0.109\nsamples = 276\nvalue = [[16, 260]\n[260, 16]]"] ;
86 -> 88 ;
89 [label="gini = 0.202\nsamples = 211\nvalue = [[24, 187]\n[187, 24]]"] ;
85 -> 89 ;
90 [label="부상병코드 <= 10.5\ngini = 0.01\nsamples = 584\nvalue = [[3, 581]\n[581, 3]]"] ;
84 -> 90 ;
91 [label="gini = 0.026\nsamples = 231\nvalue = [[3, 228]\n[228, 3]]"] ;
90 -> 91 ;
92 [label="gini = 0.0\nsamples = 353\nvalue = [[0, 353]\n[353, 0]]"] ;
90 -> 92 ;
93 [label="주상병코드 <= 3.5\ngini = 0.345\nsamples = 19070\nvalue = [[4221, 14849]\n[14849, 4221]]"] ;
83 -> 93 ;
94 [label="연령대코드 <= 10.5\ngini = 0.497\nsamples = 755\nvalue = [[347, 408]\n[408, 347]]"] ;
93 -> 94 ;
95 [label="gini = 0.486\nsamples = 309\nvalue = [[180, 129]\n[129, 180]]"] ;
94 -> 95 ;
96 [label="부상병코드 <= 9.5\ngini = 0.468\nsamples = 446\nvalue = [[167, 279]\n[279, 167]]"] ;
94 -> 96 ;
97 [label="gini = 0.488\nsamples = 215\nvalue = [[91, 124]\n[124, 91]]"] ;
96 -> 97 ;
98 [label="gini = 0.442\nsamples = 231\nvalue = [[76, 155]\n[155, 76]]"] ;
96 -> 98 ;
99 [label="부상병코드 <= 7.5\ngini = 0.334\nsamples = 18315\nvalue = [[3874, 14441]\n[14441, 3874]]"] ;
93 -> 99 ;
100 [label="시도코드 <= 45.5\ngini = 0.351\nsamples = 15751\nvalue = [[3573, 12178]\n[12178, 3573]]"] ;
99 -> 100 ;
101 [label="연령대코드 <= 10.5\ngini = 0.367\nsamples = 13391\nvalue = [[3243, 10148]\n[10148, 3243]]"] ;
100 -> 101 ;
102 [label="gini = 0.301\nsamples = 3702\nvalue = [[683, 3019]\n[3019, 683]]"] ;
101 -> 102 ;
103 [label="gini = 0.389\nsamples = 9689\nvalue = [[2560, 7129]\n[7129, 2560]]"] ;
101 -> 103 ;
104 [label="부상병코드 <= 6.5\ngini = 0.241\nsamples = 2360\nvalue = [[330, 2030]\n[2030, 330]]"] ;
100 -> 104 ;
105 [label="gini = 0.069\nsamples = 504\nvalue = [[18, 486]\n[486, 18]]"] ;
104 -> 105 ;
106 [label="gini = 0.28\nsamples = 1856\nvalue = [[312, 1544]\n[1544, 312]]"] ;
104 -> 106 ;
107 [label="부상병코드 <= 10.5\ngini = 0.207\nsamples = 2564\nvalue = [[301, 2263]\n[2263, 301]]"] ;
99 -> 107 ;
108 [label="진료과목코드 <= 2.5\ngini = 0.245\nsamples = 1814\nvalue = [[259, 1555]\n[1555, 259]]"] ;
107 -> 108 ;
109 [label="gini = 0.38\nsamples = 412\nvalue = [[105, 307]\n[307, 105]]"] ;
108 -> 109 ;
110 [label="gini = 0.196\nsamples = 1402\nvalue = [[154, 1248]\n[1248, 154]]"] ;
108 -> 110 ;
111 [label="연령대코드 <= 13.5\ngini = 0.106\nsamples = 750\nvalue = [[42, 708]\n[708, 42]]"] ;
107 -> 111 ;
112 [label="gini = 0.159\nsamples = 414\nvalue = [[36, 378]\n[378, 36]]"] ;
111 -> 112 ;
113 [label="gini = 0.035\nsamples = 336\nvalue = [[6, 330]\n[330, 6]]"] ;
111 -> 113 ;
114 [label="연령대코드 <= 9.5\ngini = 0.493\nsamples = 528\nvalue = [[296, 232]\n[232, 296]]"] ;
82 -> 114 ;
115 [label="gini = 0.268\nsamples = 326\nvalue = [[274, 52]\n[52, 274]]"] ;
114 -> 115 ;
116 [label="gini = 0.194\nsamples = 202\nvalue = [[22, 180]\n[180, 22]]"] ;
114 -> 116 ;
117 [label="시도코드 <= 48.5\ngini = 0.099\nsamples = 5732\nvalue = [[298, 5434]\n[5434, 298]]"] ;
57 -> 117 ;
118 [label="주상병코드 <= 6.5\ngini = 0.063\nsamples = 5485\nvalue = [[179, 5306]\n[5306, 179]]"] ;
117 -> 118 ;
119 [label="주상병코드 <= 5.5\ngini = 0.117\nsamples = 2090\nvalue = [[130, 1960]\n[1960, 130]]"] ;
118 -> 119 ;
120 [label="주상병코드 <= 1.5\ngini = 0.057\nsamples = 1854\nvalue = [[54, 1800]\n[1800, 54]]"] ;
119 -> 120 ;
121 [label="시도코드 <= 44.5\ngini = 0.024\nsamples = 1310\nvalue = [[16, 1294]\n[1294, 16]]"] ;
120 -> 121 ;
122 [label="진료과목코드 <= 14.5\ngini = 0.012\nsamples = 1007\nvalue = [[6, 1001]\n[1001, 6]]"] ;
121 -> 122 ;
123 [label="부상병코드 <= 6.5\ngini = 0.005\nsamples = 733\nvalue = [[2, 731]\n[731, 2]]"] ;
122 -> 123 ;
124 [label="gini = 0.017\nsamples = 238\nvalue = [[2, 236]\n[236, 2]]"] ;
123 -> 124 ;
125 [label="gini = 0.0\nsamples = 495\nvalue = [[0, 495]\n[495, 0]]"] ;
123 -> 125 ;
126 [label="gini = 0.029\nsamples = 274\nvalue = [[4, 270]\n[270, 4]]"] ;
122 -> 126 ;
127 [label="gini = 0.064\nsamples = 303\nvalue = [[10, 293]\n[293, 10]]"] ;
121 -> 127 ;
128 [label="부상병코드 <= 7.5\ngini = 0.13\nsamples = 544\nvalue = [[38, 506]\n[506, 38]]"] ;
120 -> 128 ;
129 [label="gini = 0.226\nsamples = 208\nvalue = [[27, 181]\n[181, 27]]"] ;
128 -> 129 ;
130 [label="gini = 0.063\nsamples = 336\nvalue = [[11, 325]\n[325, 11]]"] ;
128 -> 130 ;
131 [label="gini = 0.437\nsamples = 236\nvalue = [[76, 160]\n[160, 76]]"] ;
119 -> 131 ;
132 [label="부상병코드 <= 7.5\ngini = 0.028\nsamples = 3395\nvalue = [[49, 3346]\n[3346, 49]]"] ;
118 -> 132 ;
133 [label="시도코드 <= 43.5\ngini = 0.051\nsamples = 1294\nvalue = [[34, 1260]\n[1260, 34]]"] ;
132 -> 133 ;
134 [label="연령대코드 <= 9.5\ngini = 0.036\nsamples = 987\nvalue = [[18, 969]\n[969, 18]]"] ;
133 -> 134 ;
135 [label="gini = 0.013\nsamples = 305\nvalue = [[2, 303]\n[303, 2]]"] ;
134 -> 135 ;
136 [label="연령대코드 <= 14.5\ngini = 0.046\nsamples = 682\nvalue = [[16, 666]\n[666, 16]]"] ;
134 -> 136 ;
137 [label="시도코드 <= 29.5\ngini = 0.061\nsamples = 446\nvalue = [[14, 432]\n[432, 14]]"] ;
136 -> 137 ;
138 [label="gini = 0.079\nsamples = 242\nvalue = [[10, 232]\n[232, 10]]"] ;
137 -> 138 ;
139 [label="gini = 0.038\nsamples = 204\nvalue = [[4, 200]\n[200, 4]]"] ;
137 -> 139 ;
140 [label="gini = 0.017\nsamples = 236\nvalue = [[2, 234]\n[234, 2]]"] ;
136 -> 140 ;
141 [label="gini = 0.099\nsamples = 307\nvalue = [[16, 291]\n[291, 16]]"] ;
133 -> 141 ;
142 [label="연령대코드 <= 6.5\ngini = 0.014\nsamples = 2101\nvalue = [[15, 2086]\n[2086, 15]]"] ;
132 -> 142 ;
143 [label="시도코드 <= 38.5\ngini = 0.004\nsamples = 1099\nvalue = [[2, 1097]\n[1097, 2]]"] ;
142 -> 143 ;
144 [label="시도코드 <= 26.5\ngini = 0.009\nsamples = 452\nvalue = [[2, 450]\n[450, 2]]"] ;
143 -> 144 ;
145 [label="gini = 0.0\nsamples = 242\nvalue = [[0, 242]\n[242, 0]]"] ;
144 -> 145 ;
146 [label="gini = 0.019\nsamples = 210\nvalue = [[2, 208]\n[208, 2]]"] ;
144 -> 146 ;
147 [label="gini = 0.0\nsamples = 647\nvalue = [[0, 647]\n[647, 0]]"] ;
143 -> 147 ;
148 [label="시도코드 <= 18.5\ngini = 0.026\nsamples = 1002\nvalue = [[13, 989]\n[989, 13]]"] ;
142 -> 148 ;
149 [label="gini = 0.0\nsamples = 202\nvalue = [[0, 202]\n[202, 0]]"] ;
148 -> 149 ;
150 [label="성별코드 <= 1.5\ngini = 0.032\nsamples = 800\nvalue = [[13, 787]\n[787, 13]]"] ;
148 -> 150 ;
151 [label="gini = 0.05\nsamples = 314\nvalue = [[8, 306]\n[306, 8]]"] ;
150 -> 151 ;
152 [label="연령대코드 <= 12.5\ngini = 0.02\nsamples = 486\nvalue = [[5, 481]\n[481, 5]]"] ;
150 -> 152 ;
153 [label="gini = 0.024\nsamples = 248\nvalue = [[3, 245]\n[245, 3]]"] ;
152 -> 153 ;
154 [label="gini = 0.017\nsamples = 238\nvalue = [[2, 236]\n[236, 2]]"] ;
152 -> 154 ;
155 [label="gini = 0.499\nsamples = 247\nvalue = [[119, 128]\n[128, 119]]"] ;
117 -> 155 ;
156 [label="주상병코드 <= 13.5\ngini = 0.11\nsamples = 133554\nvalue = [[7794, 125760]\n[125760, 7794]]"] ;
2 -> 156 ;
157 [label="진료과목코드 <= 1.5\ngini = 0.096\nsamples = 122805\nvalue = [[6183, 116622]\n[116622, 6183]]"] ;
156 -> 157 ;
158 [label="연령대코드 <= 1.5\ngini = 0.05\nsamples = 46362\nvalue = [[1200, 45162]\n[45162, 1200]]"] ;
157 -> 158 ;
159 [label="시도코드 <= 44.5\ngini = 0.122\nsamples = 3838\nvalue = [[251, 3587]\n[3587, 251]]"] ;
158 -> 159 ;
160 [label="시도코드 <= 26.5\ngini = 0.087\nsamples = 3306\nvalue = [[150, 3156]\n[3156, 150]]"] ;
159 -> 160 ;
161 [label="성별코드 <= 1.5\ngini = 0.007\nsamples = 842\nvalue = [[3, 839]\n[839, 3]]"] ;
160 -> 161 ;
162 [label="gini = 0.014\nsamples = 427\nvalue = [[3, 424]\n[424, 3]]"] ;
161 -> 162 ;
163 [label="gini = 0.0\nsamples = 415\nvalue = [[0, 415]\n[415, 0]]"] ;
161 -> 163 ;
164 [label="시도코드 <= 38.5\ngini = 0.112\nsamples = 2464\nvalue = [[147, 2317]\n[2317, 147]]"] ;
160 -> 164 ;
165 [label="시도코드 <= 30.5\ngini = 0.234\nsamples = 768\nvalue = [[104, 664]\n[664, 104]]"] ;
164 -> 165 ;
166 [label="성별코드 <= 1.5\ngini = 0.123\nsamples = 532\nvalue = [[35, 497]\n[497, 35]]"] ;
165 -> 166 ;
167 [label="gini = 0.137\nsamples = 271\nvalue = [[20, 251]\n[251, 20]]"] ;
166 -> 167 ;
168 [label="gini = 0.108\nsamples = 261\nvalue = [[15, 246]\n[246, 15]]"] ;
166 -> 168 ;
169 [label="gini = 0.414\nsamples = 236\nvalue = [[69, 167]\n[167, 69]]"] ;
165 -> 169 ;
170 [label="시도코드 <= 41.5\ngini = 0.049\nsamples = 1696\nvalue = [[43, 1653]\n[1653, 43]]"] ;
164 -> 170 ;
171 [label="성별코드 <= 1.5\ngini = 0.02\nsamples = 1207\nvalue = [[12, 1195]\n[1195, 12]]"] ;
170 -> 171 ;
172 [label="gini = 0.032\nsamples = 618\nvalue = [[10, 608]\n[608, 10]]"] ;
171 -> 172 ;
173 [label="gini = 0.007\nsamples = 589\nvalue = [[2, 587]\n[587, 2]]"] ;
171 -> 173 ;
174 [label="성별코드 <= 1.5\ngini = 0.119\nsamples = 489\nvalue = [[31, 458]\n[458, 31]]"] ;
170 -> 174 ;
175 [label="gini = 0.078\nsamples = 271\nvalue = [[11, 260]\n[260, 11]]"] ;
174 -> 175 ;
176 [label="gini = 0.167\nsamples = 218\nvalue = [[20, 198]\n[198, 20]]"] ;
174 -> 176 ;
177 [label="시도코드 <= 47.5\ngini = 0.308\nsamples = 532\nvalue = [[101, 431]\n[431, 101]]"] ;
159 -> 177 ;
178 [label="gini = 0.39\nsamples = 316\nvalue = [[84, 232]\n[232, 84]]"] ;
177 -> 178 ;
179 [label="gini = 0.145\nsamples = 216\nvalue = [[17, 199]\n[199, 17]]"] ;
177 -> 179 ;
180 [label="시도코드 <= 44.5\ngini = 0.044\nsamples = 42524\nvalue = [[949, 41575]\n[41575, 949]]"] ;
158 -> 180 ;
181 [label="시도코드 <= 26.5\ngini = 0.036\nsamples = 33532\nvalue = [[610, 32922]\n[32922, 610]]"] ;
180 -> 181 ;
182 [label="연령대코드 <= 12.5\ngini = 0.02\nsamples = 10646\nvalue = [[107, 10539]\n[10539, 107]]"] ;
181 -> 182 ;
183 [label="연령대코드 <= 3.5\ngini = 0.026\nsamples = 6062\nvalue = [[80, 5982]\n[5982, 80]]"] ;
182 -> 183 ;
184 [label="시도코드 <= 18.5\ngini = 0.002\nsamples = 914\nvalue = [[1, 913]\n[913, 1]]"] ;
183 -> 184 ;
185 [label="gini = 0.0\nsamples = 702\nvalue = [[0, 702]\n[702, 0]]"] ;
184 -> 185 ;
186 [label="gini = 0.009\nsamples = 212\nvalue = [[1, 211]\n[211, 1]]"] ;
184 -> 186 ;
187 [label="성별코드 <= 1.5\ngini = 0.03\nsamples = 5148\nvalue = [[79, 5069]\n[5069, 79]]"] ;
183 -> 187 ;
188 [label="주상병코드 <= 9.5\ngini = 0.04\nsamples = 2229\nvalue = [[45, 2184]\n[2184, 45]]"] ;
187 -> 188 ;
189 [label="gini = 0.035\nsamples = 1643\nvalue = [[29, 1614]\n[1614, 29]]"] ;
188 -> 189 ;
190 [label="gini = 0.053\nsamples = 586\nvalue = [[16, 570]\n[570, 16]]"] ;
188 -> 190 ;
191 [label="연령대코드 <= 10.5\ngini = 0.023\nsamples = 2919\nvalue = [[34, 2885]\n[2885, 34]]"] ;
187 -> 191 ;
192 [label="gini = 0.028\nsamples = 1912\nvalue = [[27, 1885]\n[1885, 27]]"] ;
191 -> 192 ;
193 [label="gini = 0.014\nsamples = 1007\nvalue = [[7, 1000]\n[1000, 7]]"] ;
191 -> 193 ;
194 [label="부상병코드 <= 11.5\ngini = 0.012\nsamples = 4584\nvalue = [[27, 4557]\n[4557, 27]]"] ;
182 -> 194 ;
195 [label="시도코드 <= 18.5\ngini = 0.01\nsamples = 4148\nvalue = [[20, 4128]\n[4128, 20]]"] ;
194 -> 195 ;
196 [label="부상병코드 <= 9.5\ngini = 0.006\nsamples = 2955\nvalue = [[9, 2946]\n[2946, 9]]"] ;
195 -> 196 ;
197 [label="gini = 0.004\nsamples = 2173\nvalue = [[4, 2169]\n[2169, 4]]"] ;
196 -> 197 ;
198 [label="gini = 0.013\nsamples = 782\nvalue = [[5, 777]\n[777, 5]]"] ;
196 -> 198 ;
199 [label="성별코드 <= 1.5\ngini = 0.018\nsamples = 1193\nvalue = [[11, 1182]\n[1182, 11]]"] ;
195 -> 199 ;
200 [label="gini = 0.012\nsamples = 514\nvalue = [[3, 511]\n[511, 3]]"] ;
199 -> 200 ;
201 [label="gini = 0.023\nsamples = 679\nvalue = [[8, 671]\n[671, 8]]"] ;
199 -> 201 ;
202 [label="gini = 0.032\nsamples = 436\nvalue = [[7, 429]\n[429, 7]]"] ;
194 -> 202 ;
203 [label="주상병코드 <= 8.5\ngini = 0.043\nsamples = 22886\nvalue = [[503, 22383]\n[22383, 503]]"] ;
181 -> 203 ;
204 [label="부상병코드 <= 7.5\ngini = 0.017\nsamples = 5979\nvalue = [[52, 5927]\n[5927, 52]]"] ;
203 -> 204 ;
205 [label="연령대코드 <= 12.5\ngini = 0.003\nsamples = 3808\nvalue = [[6, 3802]\n[3802, 6]]"] ;
204 -> 205 ;
206 [label="시도코드 <= 41.5\ngini = 0.006\nsamples = 1310\nvalue = [[4, 1306]\n[1306, 4]]"] ;
205 -> 206 ;
207 [label="gini = 0.008\nsamples = 1033\nvalue = [[4, 1029]\n[1029, 4]]"] ;
206 -> 207 ;
208 [label="gini = 0.0\nsamples = 277\nvalue = [[0, 277]\n[277, 0]]"] ;
206 -> 208 ;
209 [label="성별코드 <= 1.5\ngini = 0.002\nsamples = 2498\nvalue = [[2, 2496]\n[2496, 2]]"] ;
205 -> 209 ;
210 [label="gini = 0.0\nsamples = 970\nvalue = [[0, 970]\n[970, 0]]"] ;
209 -> 210 ;
211 [label="gini = 0.003\nsamples = 1528\nvalue = [[2, 1526]\n[1526, 2]]"] ;
209 -> 211 ;
212 [label="연령대코드 <= 14.5\ngini = 0.041\nsamples = 2171\nvalue = [[46, 2125]\n[2125, 46]]"] ;
204 -> 212 ;
213 [label="부상병코드 <= 11.5\ngini = 0.064\nsamples = 1232\nvalue = [[41, 1191]\n[1191, 41]]"] ;
212 -> 213 ;
214 [label="gini = 0.075\nsamples = 1005\nvalue = [[39, 966]\n[966, 39]]"] ;
213 -> 214 ;
215 [label="gini = 0.017\nsamples = 227\nvalue = [[2, 225]\n[225, 2]]"] ;
213 -> 215 ;
216 [label="부상병코드 <= 8.5\ngini = 0.011\nsamples = 939\nvalue = [[5, 934]\n[934, 5]]"] ;
212 -> 216 ;
217 [label="gini = 0.019\nsamples = 409\nvalue = [[4, 405]\n[405, 4]]"] ;
216 -> 217 ;
218 [label="gini = 0.004\nsamples = 530\nvalue = [[1, 529]\n[529, 1]]"] ;
216 -> 218 ;
219 [label="시도코드 <= 38.5\ngini = 0.052\nsamples = 16907\nvalue = [[451, 16456]\n[16456, 451]]"] ;
203 -> 219 ;
220 [label="연령대코드 <= 3.5\ngini = 0.071\nsamples = 5933\nvalue = [[218, 5715]\n[5715, 218]]"] ;
219 -> 220 ;
221 [label="시도코드 <= 30.5\ngini = 0.136\nsamples = 871\nvalue = [[64, 807]\n[807, 64]]"] ;
220 -> 221 ;
222 [label="gini = 0.071\nsamples = 654\nvalue = [[24, 630]\n[630, 24]]"] ;
221 -> 222 ;
223 [label="gini = 0.301\nsamples = 217\nvalue = [[40, 177]\n[177, 40]]"] ;
221 -> 223 ;
224 [label="주상병코드 <= 9.5\ngini = 0.059\nsamples = 5062\nvalue = [[154, 4908]\n[4908, 154]]"] ;
220 -> 224 ;
225 [label="gini = 0.039\nsamples = 2961\nvalue = [[59, 2902]\n[2902, 59]]"] ;
224 -> 225 ;
226 [label="gini = 0.086\nsamples = 2101\nvalue = [[95, 2006]\n[2006, 95]]"] ;
224 -> 226 ;
227 [label="부상병코드 <= 11.5\ngini = 0.042\nsamples = 10974\nvalue = [[233, 10741]\n[10741, 233]]"] ;
219 -> 227 ;
228 [label="시도코드 <= 41.5\ngini = 0.039\nsamples = 10025\nvalue = [[197, 9828]\n[9828, 197]]"] ;
227 -> 228 ;
229 [label="gini = 0.035\nsamples = 7229\nvalue = [[127, 7102]\n[7102, 127]]"] ;
228 -> 229 ;
230 [label="gini = 0.049\nsamples = 2796\nvalue = [[70, 2726]\n[2726, 70]]"] ;
228 -> 230 ;
231 [label="주상병코드 <= 9.5\ngini = 0.073\nsamples = 949\nvalue = [[36, 913]\n[913, 36]]"] ;
227 -> 231 ;
232 [label="gini = 0.031\nsamples = 443\nvalue = [[7, 436]\n[436, 7]]"] ;
231 -> 232 ;
233 [label="gini = 0.108\nsamples = 506\nvalue = [[29, 477]\n[477, 29]]"] ;
231 -> 233 ;
234 [label="시도코드 <= 46.5\ngini = 0.073\nsamples = 8992\nvalue = [[339, 8653]\n[8653, 339]]"] ;
180 -> 234 ;
235 [label="연령대코드 <= 6.5\ngini = 0.112\nsamples = 3510\nvalue = [[209, 3301]\n[3301, 209]]"] ;
234 -> 235 ;
236 [label="성별코드 <= 1.5\ngini = 0.204\nsamples = 495\nvalue = [[57, 438]\n[438, 57]]"] ;
235 -> 236 ;
237 [label="gini = 0.25\nsamples = 232\nvalue = [[34, 198]\n[198, 34]]"] ;
236 -> 237 ;
238 [label="gini = 0.16\nsamples = 263\nvalue = [[23, 240]\n[240, 23]]"] ;
236 -> 238 ;
239 [label="주상병코드 <= 8.5\ngini = 0.096\nsamples = 3015\nvalue = [[152, 2863]\n[2863, 152]]"] ;
235 -> 239 ;
240 [label="부상병코드 <= 4.5\ngini = 0.055\nsamples = 1121\nvalue = [[32, 1089]\n[1089, 32]]"] ;
239 -> 240 ;
241 [label="연령대코드 <= 13.5\ngini = 0.004\nsamples = 496\nvalue = [[1, 495]\n[495, 1]]"] ;
240 -> 241 ;
242 [label="gini = 0.0\nsamples = 228\nvalue = [[0, 228]\n[228, 0]]"] ;
241 -> 242 ;
243 [label="gini = 0.007\nsamples = 268\nvalue = [[1, 267]\n[267, 1]]"] ;
241 -> 243 ;
244 [label="시도코드 <= 45.5\ngini = 0.094\nsamples = 625\nvalue = [[31, 594]\n[594, 31]]"] ;
240 -> 244 ;
245 [label="gini = 0.048\nsamples = 325\nvalue = [[8, 317]\n[317, 8]]"] ;
244 -> 245 ;
246 [label="gini = 0.142\nsamples = 300\nvalue = [[23, 277]\n[277, 23]]"] ;
244 -> 246 ;
247 [label="부상병코드 <= 9.5\ngini = 0.119\nsamples = 1894\nvalue = [[120, 1774]\n[1774, 120]]"] ;
239 -> 247 ;
248 [label="주상병코드 <= 9.5\ngini = 0.159\nsamples = 952\nvalue = [[83, 869]\n[869, 83]]"] ;
247 -> 248 ;
249 [label="gini = 0.182\nsamples = 700\nvalue = [[71, 629]\n[629, 71]]"] ;
248 -> 249 ;
250 [label="gini = 0.091\nsamples = 252\nvalue = [[12, 240]\n[240, 12]]"] ;
248 -> 250 ;
251 [label="부상병코드 <= 10.5\ngini = 0.075\nsamples = 942\nvalue = [[37, 905]\n[905, 37]]"] ;
247 -> 251 ;
252 [label="gini = 0.07\nsamples = 658\nvalue = [[24, 634]\n[634, 24]]"] ;
251 -> 252 ;
253 [label="gini = 0.087\nsamples = 284\nvalue = [[13, 271]\n[271, 13]]"] ;
251 -> 253 ;
254 [label="연령대코드 <= 8.5\ngini = 0.046\nsamples = 5482\nvalue = [[130, 5352]\n[5352, 130]]"] ;
234 -> 254 ;
255 [label="부상병코드 <= 9.5\ngini = 0.093\nsamples = 1306\nvalue = [[64, 1242]\n[1242, 64]]"] ;
254 -> 255 ;
256 [label="시도코드 <= 47.5\ngini = 0.112\nsamples = 954\nvalue = [[57, 897]\n[897, 57]]"] ;
255 -> 256 ;
257 [label="gini = 0.164\nsamples = 344\nvalue = [[31, 313]\n[313, 31]]"] ;
256 -> 257 ;
258 [label="연령대코드 <= 4.5\ngini = 0.082\nsamples = 610\nvalue = [[26, 584]\n[584, 26]]"] ;
256 -> 258 ;
259 [label="gini = 0.067\nsamples = 348\nvalue = [[12, 336]\n[336, 12]]"] ;
258 -> 259 ;
260 [label="gini = 0.101\nsamples = 262\nvalue = [[14, 248]\n[248, 14]]"] ;
258 -> 260 ;
261 [label="gini = 0.039\nsamples = 352\nvalue = [[7, 345]\n[345, 7]]"] ;
255 -> 261 ;
262 [label="주상병코드 <= 8.5\ngini = 0.031\nsamples = 4176\nvalue = [[66, 4110]\n[4110, 66]]"] ;
254 -> 262 ;
263 [label="연령대코드 <= 16.5\ngini = 0.007\nsamples = 1462\nvalue = [[5, 1457]\n[1457, 5]]"] ;
262 -> 263 ;
264 [label="부상병코드 <= 9.5\ngini = 0.005\nsamples = 1224\nvalue = [[3, 1221]\n[1221, 3]]"] ;
263 -> 264 ;
265 [label="gini = 0.002\nsamples = 1023\nvalue = [[1, 1022]\n[1022, 1]]"] ;
264 -> 265 ;
266 [label="gini = 0.02\nsamples = 201\nvalue = [[2, 199]\n[199, 2]]"] ;
264 -> 266 ;
267 [label="gini = 0.017\nsamples = 238\nvalue = [[2, 236]\n[236, 2]]"] ;
263 -> 267 ;
268 [label="부상병코드 <= 9.5\ngini = 0.044\nsamples = 2714\nvalue = [[61, 2653]\n[2653, 61]]"] ;
262 -> 268 ;
269 [label="성별코드 <= 1.5\ngini = 0.065\nsamples = 1312\nvalue = [[44, 1268]\n[1268, 44]]"] ;
268 -> 269 ;
270 [label="gini = 0.082\nsamples = 537\nvalue = [[23, 514]\n[514, 23]]"] ;
269 -> 270 ;
271 [label="gini = 0.053\nsamples = 775\nvalue = [[21, 754]\n[754, 21]]"] ;
269 -> 271 ;
272 [label="성별코드 <= 1.5\ngini = 0.024\nsamples = 1402\nvalue = [[17, 1385]\n[1385, 17]]"] ;
268 -> 272 ;
273 [label="gini = 0.043\nsamples = 544\nvalue = [[12, 532]\n[532, 12]]"] ;
272 -> 273 ;
274 [label="gini = 0.012\nsamples = 858\nvalue = [[5, 853]\n[853, 5]]"] ;
272 -> 274 ;
275 [label="진료과목코드 <= 4.5\ngini = 0.122\nsamples = 76443\nvalue = [[4983, 71460]\n[71460, 4983]]"] ;
157 -> 275 ;
276 [label="연령대코드 <= 12.5\ngini = 0.358\nsamples = 3632\nvalue = [[849, 2783]\n[2783, 849]]"] ;
275 -> 276 ;
277 [label="주상병코드 <= 9.5\ngini = 0.468\nsamples = 1812\nvalue = [[677, 1135]\n[1135, 677]]"] ;
276 -> 277 ;
278 [label="성별코드 <= 1.5\ngini = 0.256\nsamples = 438\nvalue = [[66, 372]\n[372, 66]]"] ;
277 -> 278 ;
279 [label="gini = 0.209\nsamples = 211\nvalue = [[25, 186]\n[186, 25]]"] ;
278 -> 279 ;
280 [label="gini = 0.296\nsamples = 227\nvalue = [[41, 186]\n[186, 41]]"] ;
278 -> 280 ;
281 [label="주상병코드 <= 10.5\ngini = 0.494\nsamples = 1374\nvalue = [[611, 763]\n[763, 611]]"] ;
277 -> 281 ;
282 [label="시도코드 <= 30.5\ngini = 0.479\nsamples = 693\nvalue = [[418, 275]\n[275, 418]]"] ;
281 -> 282 ;
283 [label="gini = 0.496\nsamples = 261\nvalue = [[142, 119]\n[119, 142]]"] ;
282 -> 283 ;
284 [label="연령대코드 <= 8.5\ngini = 0.461\nsamples = 432\nvalue = [[276, 156]\n[156, 276]]"] ;
282 -> 284 ;
285 [label="gini = 0.45\nsamples = 208\nvalue = [[137, 71]\n[71, 137]]"] ;
284 -> 285 ;
286 [label="gini = 0.471\nsamples = 224\nvalue = [[139, 85]\n[85, 139]]"] ;
284 -> 286 ;
287 [label="주상병코드 <= 12.5\ngini = 0.406\nsamples = 681\nvalue = [[193, 488]\n[488, 193]]"] ;
281 -> 287 ;
288 [label="부상병코드 <= 10.5\ngini = 0.224\nsamples = 468\nvalue = [[60, 408]\n[408, 60]]"] ;
287 -> 288 ;
289 [label="gini = 0.133\nsamples = 238\nvalue = [[17, 221]\n[221, 17]]"] ;
288 -> 289 ;
290 [label="gini = 0.304\nsamples = 230\nvalue = [[43, 187]\n[187, 43]]"] ;
288 -> 290 ;
291 [label="gini = 0.469\nsamples = 213\nvalue = [[133, 80]\n[80, 133]]"] ;
287 -> 291 ;
292 [label="연령대코드 <= 13.5\ngini = 0.171\nsamples = 1820\nvalue = [[172, 1648]\n[1648, 172]]"] ;
276 -> 292 ;
293 [label="gini = 0.326\nsamples = 370\nvalue = [[76, 294]\n[294, 76]]"] ;
292 -> 293 ;
294 [label="주상병코드 <= 10.5\ngini = 0.124\nsamples = 1450\nvalue = [[96, 1354]\n[1354, 96]]"] ;
292 -> 294 ;
295 [label="부상병코드 <= 9.5\ngini = 0.196\nsamples = 616\nvalue = [[68, 548]\n[548, 68]]"] ;
294 -> 295 ;
296 [label="gini = 0.079\nsamples = 316\nvalue = [[13, 303]\n[303, 13]]"] ;
295 -> 296 ;
297 [label="gini = 0.299\nsamples = 300\nvalue = [[55, 245]\n[245, 55]]"] ;
295 -> 297 ;
298 [label="시도코드 <= 29.5\ngini = 0.065\nsamples = 834\nvalue = [[28, 806]\n[806, 28]]"] ;
294 -> 298 ;
299 [label="gini = 0.122\nsamples = 214\nvalue = [[14, 200]\n[200, 14]]"] ;
298 -> 299 ;
300 [label="시도코드 <= 44.5\ngini = 0.044\nsamples = 620\nvalue = [[14, 606]\n[606, 14]]"] ;
298 -> 300 ;
301 [label="gini = 0.065\nsamples = 266\nvalue = [[9, 257]\n[257, 9]]"] ;
300 -> 301 ;
302 [label="gini = 0.028\nsamples = 354\nvalue = [[5, 349]\n[349, 5]]"] ;
300 -> 302 ;
303 [label="진료과목코드 <= 11.5\ngini = 0.107\nsamples = 72811\nvalue = [[4134, 68677]\n[68677, 4134]]"] ;
275 -> 303 ;
304 [label="연령대코드 <= 13.5\ngini = 0.153\nsamples = 35346\nvalue = [[2946, 32400]\n[32400, 2946]]"] ;
303 -> 304 ;
305 [label="주상병코드 <= 8.5\ngini = 0.184\nsamples = 22931\nvalue = [[2350, 20581]\n[20581, 2350]]"] ;
304 -> 305 ;
306 [label="gini = 0.496\nsamples = 227\nvalue = [[103, 124]\n[124, 103]]"] ;
305 -> 306 ;
307 [label="시도코드 <= 44.5\ngini = 0.178\nsamples = 22704\nvalue = [[2247, 20457]\n[20457, 2247]]"] ;
305 -> 307 ;
308 [label="부상병코드 <= 11.5\ngini = 0.149\nsamples = 17809\nvalue = [[1448, 16361]\n[16361, 1448]]"] ;
307 -> 308 ;
309 [label="부상병코드 <= 6.5\ngini = 0.121\nsamples = 9592\nvalue = [[621, 8971]\n[8971, 621]]"] ;
308 -> 309 ;
310 [label="gini = 0.188\nsamples = 1303\nvalue = [[137, 1166]\n[1166, 137]]"] ;
309 -> 310 ;
311 [label="gini = 0.11\nsamples = 8289\nvalue = [[484, 7805]\n[7805, 484]]"] ;
309 -> 311 ;
312 [label="진료과목코드 <= 8.5\ngini = 0.181\nsamples = 8217\nvalue = [[827, 7390]\n[7390, 827]]"] ;
308 -> 312 ;
313 [label="gini = 0.199\nsamples = 6021\nvalue = [[673, 5348]\n[5348, 673]]"] ;
312 -> 313 ;
314 [label="gini = 0.13\nsamples = 2196\nvalue = [[154, 2042]\n[2042, 154]]"] ;
312 -> 314 ;
315 [label="연령대코드 <= 2.5\ngini = 0.273\nsamples = 4895\nvalue = [[799, 4096]\n[4096, 799]]"] ;
307 -> 315 ;
316 [label="부상병코드 <= 8.0\ngini = 0.377\nsamples = 1308\nvalue = [[329, 979]\n[979, 329]]"] ;
315 -> 316 ;
317 [label="gini = 0.466\nsamples = 211\nvalue = [[78, 133]\n[133, 78]]"] ;
316 -> 317 ;
318 [label="gini = 0.353\nsamples = 1097\nvalue = [[251, 846]\n[846, 251]]"] ;
316 -> 318 ;
319 [label="시도코드 <= 46.5\ngini = 0.228\nsamples = 3587\nvalue = [[470, 3117]\n[3117, 470]]"] ;
315 -> 319 ;
320 [label="gini = 0.316\nsamples = 1403\nvalue = [[276, 1127]\n[1127, 276]]"] ;
319 -> 320 ;
321 [label="gini = 0.162\nsamples = 2184\nvalue = [[194, 1990]\n[1990, 194]]"] ;
319 -> 321 ;
322 [label="연령대코드 <= 15.5\ngini = 0.091\nsamples = 12415\nvalue = [[596, 11819]\n[11819, 596]]"] ;
304 -> 322 ;
323 [label="시도코드 <= 46.5\ngini = 0.11\nsamples = 6517\nvalue = [[382, 6135]\n[6135, 382]]"] ;
322 -> 323 ;
324 [label="성별코드 <= 1.5\ngini = 0.118\nsamples = 5566\nvalue = [[350, 5216]\n[5216, 350]]"] ;
323 -> 324 ;
325 [label="진료과목코드 <= 5.5\ngini = 0.089\nsamples = 1732\nvalue = [[81, 1651]\n[1651, 81]]"] ;
324 -> 325 ;
326 [label="gini = 0.079\nsamples = 1441\nvalue = [[59, 1382]\n[1382, 59]]"] ;
325 -> 326 ;
327 [label="gini = 0.14\nsamples = 291\nvalue = [[22, 269]\n[269, 22]]"] ;
325 -> 327 ;
328 [label="시도코드 <= 44.5\ngini = 0.13\nsamples = 3834\nvalue = [[269, 3565]\n[3565, 269]]"] ;
324 -> 328 ;
329 [label="gini = 0.12\nsamples = 3250\nvalue = [[209, 3041]\n[3041, 209]]"] ;
328 -> 329 ;
330 [label="gini = 0.184\nsamples = 584\nvalue = [[60, 524]\n[524, 60]]"] ;
328 -> 330 ;
331 [label="연령대코드 <= 14.5\ngini = 0.065\nsamples = 951\nvalue = [[32, 919]\n[919, 32]]"] ;
323 -> 331 ;
332 [label="시도코드 <= 47.5\ngini = 0.075\nsamples = 484\nvalue = [[19, 465]\n[465, 19]]"] ;
331 -> 332 ;
333 [label="gini = 0.051\nsamples = 228\nvalue = [[6, 222]\n[222, 6]]"] ;
332 -> 333 ;
334 [label="gini = 0.096\nsamples = 256\nvalue = [[13, 243]\n[243, 13]]"] ;
332 -> 334 ;
335 [label="시도코드 <= 47.5\ngini = 0.054\nsamples = 467\nvalue = [[13, 454]\n[454, 13]]"] ;
331 -> 335 ;
336 [label="gini = 0.073\nsamples = 212\nvalue = [[8, 204]\n[204, 8]]"] ;
335 -> 336 ;
337 [label="gini = 0.038\nsamples = 255\nvalue = [[5, 250]\n[250, 5]]"] ;
335 -> 337 ;
338 [label="진료과목코드 <= 8.0\ngini = 0.07\nsamples = 5898\nvalue = [[214, 5684]\n[5684, 214]]"] ;
322 -> 338 ;
339 [label="진료과목코드 <= 5.5\ngini = 0.074\nsamples = 5370\nvalue = [[207, 5163]\n[5163, 207]]"] ;
338 -> 339 ;
340 [label="부상병코드 <= 6.5\ngini = 0.071\nsamples = 5023\nvalue = [[186, 4837]\n[4837, 186]]"] ;
339 -> 340 ;
341 [label="gini = 0.116\nsamples = 275\nvalue = [[17, 258]\n[258, 17]]"] ;
340 -> 341 ;
342 [label="gini = 0.069\nsamples = 4748\nvalue = [[169, 4579]\n[4579, 169]]"] ;
340 -> 342 ;
343 [label="gini = 0.114\nsamples = 347\nvalue = [[21, 326]\n[326, 21]]"] ;
339 -> 343 ;
344 [label="시도코드 <= 38.5\ngini = 0.026\nsamples = 528\nvalue = [[7, 521]\n[521, 7]]"] ;
338 -> 344 ;
345 [label="gini = 0.008\nsamples = 235\nvalue = [[1, 234]\n[234, 1]]"] ;
344 -> 345 ;
346 [label="gini = 0.04\nsamples = 293\nvalue = [[6, 287]\n[287, 6]]"] ;
344 -> 346 ;
347 [label="주상병코드 <= 12.5\ngini = 0.061\nsamples = 37465\nvalue = [[1188, 36277]\n[36277, 1188]]"] ;
303 -> 347 ;
348 [label="부상병코드 <= 9.5\ngini = 0.054\nsamples = 34124\nvalue = [[952, 33172]\n[33172, 952]]"] ;
347 -> 348 ;
349 [label="시도코드 <= 44.5\ngini = 0.071\nsamples = 21307\nvalue = [[786, 20521]\n[20521, 786]]"] ;
348 -> 349 ;
350 [label="연령대코드 <= 3.5\ngini = 0.061\nsamples = 17979\nvalue = [[564, 17415]\n[17415, 564]]"] ;
349 -> 350 ;
351 [label="진료과목코드 <= 22.5\ngini = 0.025\nsamples = 6194\nvalue = [[77, 6117]\n[6117, 77]]"] ;
350 -> 351 ;
352 [label="gini = 0.02\nsamples = 5826\nvalue = [[59, 5767]\n[5767, 59]]"] ;
351 -> 352 ;
353 [label="gini = 0.093\nsamples = 368\nvalue = [[18, 350]\n[350, 18]]"] ;
351 -> 353 ;
354 [label="성별코드 <= 1.5\ngini = 0.079\nsamples = 11785\nvalue = [[487, 11298]\n[11298, 487]]"] ;
350 -> 354 ;
355 [label="gini = 0.113\nsamples = 5064\nvalue = [[305, 4759]\n[4759, 305]]"] ;
354 -> 355 ;
356 [label="gini = 0.053\nsamples = 6721\nvalue = [[182, 6539]\n[6539, 182]]"] ;
354 -> 356 ;
357 [label="진료과목코드 <= 13.5\ngini = 0.125\nsamples = 3328\nvalue = [[222, 3106]\n[3106, 222]]"] ;
349 -> 357 ;
358 [label="시도코드 <= 46.5\ngini = 0.147\nsamples = 2567\nvalue = [[205, 2362]\n[2362, 205]]"] ;
357 -> 358 ;
359 [label="gini = 0.211\nsamples = 869\nvalue = [[104, 765]\n[765, 104]]"] ;
358 -> 359 ;
360 [label="gini = 0.112\nsamples = 1698\nvalue = [[101, 1597]\n[1597, 101]]"] ;
358 -> 360 ;
361 [label="시도코드 <= 47.5\ngini = 0.044\nsamples = 761\nvalue = [[17, 744]\n[744, 17]]"] ;
357 -> 361 ;
362 [label="gini = 0.062\nsamples = 502\nvalue = [[16, 486]\n[486, 16]]"] ;
361 -> 362 ;
363 [label="gini = 0.008\nsamples = 259\nvalue = [[1, 258]\n[258, 1]]"] ;
361 -> 363 ;
364 [label="부상병코드 <= 11.5\ngini = 0.026\nsamples = 12817\nvalue = [[166, 12651]\n[12651, 166]]"] ;
348 -> 364 ;
365 [label="시도코드 <= 42.5\ngini = 0.012\nsamples = 10477\nvalue = [[63, 10414]\n[10414, 63]]"] ;
364 -> 365 ;
366 [label="주상병코드 <= 11.5\ngini = 0.007\nsamples = 7531\nvalue = [[25, 7506]\n[7506, 25]]"] ;
365 -> 366 ;
367 [label="gini = 0.005\nsamples = 7258\nvalue = [[20, 7238]\n[7238, 20]]"] ;
366 -> 367 ;
368 [label="gini = 0.036\nsamples = 273\nvalue = [[5, 268]\n[268, 5]]"] ;
366 -> 368 ;
369 [label="주상병코드 <= 10.5\ngini = 0.025\nsamples = 2946\nvalue = [[38, 2908]\n[2908, 38]]"] ;
365 -> 369 ;
370 [label="gini = 0.048\nsamples = 690\nvalue = [[17, 673]\n[673, 17]]"] ;
369 -> 370 ;
371 [label="gini = 0.018\nsamples = 2256\nvalue = [[21, 2235]\n[2235, 21]]"] ;
369 -> 371 ;
372 [label="연령대코드 <= 13.5\ngini = 0.084\nsamples = 2340\nvalue = [[103, 2237]\n[2237, 103]]"] ;
364 -> 372 ;
373 [label="주상병코드 <= 11.5\ngini = 0.113\nsamples = 1309\nvalue = [[79, 1230]\n[1230, 79]]"] ;
372 -> 373 ;
374 [label="gini = 0.074\nsamples = 651\nvalue = [[25, 626]\n[626, 25]]"] ;
373 -> 374 ;
375 [label="gini = 0.151\nsamples = 658\nvalue = [[54, 604]\n[604, 54]]"] ;
373 -> 375 ;
376 [label="주상병코드 <= 11.5\ngini = 0.045\nsamples = 1031\nvalue = [[24, 1007]\n[1007, 24]]"] ;
372 -> 376 ;
377 [label="gini = 0.083\nsamples = 301\nvalue = [[13, 288]\n[288, 13]]"] ;
376 -> 377 ;
378 [label="gini = 0.03\nsamples = 730\nvalue = [[11, 719]\n[719, 11]]"] ;
376 -> 378 ;
379 [label="연령대코드 <= 14.5\ngini = 0.131\nsamples = 3341\nvalue = [[236, 3105]\n[3105, 236]]"] ;
347 -> 379 ;
380 [label="부상병코드 <= 1.5\ngini = 0.148\nsamples = 2501\nvalue = [[201, 2300]\n[2300, 201]]"] ;
379 -> 380 ;
381 [label="gini = 0.018\nsamples = 218\nvalue = [[2, 216]\n[216, 2]]"] ;
380 -> 381 ;
382 [label="시도코드 <= 44.5\ngini = 0.159\nsamples = 2283\nvalue = [[199, 2084]\n[2084, 199]]"] ;
380 -> 382 ;
383 [label="시도코드 <= 28.5\ngini = 0.145\nsamples = 1849\nvalue = [[146, 1703]\n[1703, 146]]"] ;
382 -> 383 ;
384 [label="gini = 0.171\nsamples = 903\nvalue = [[85, 818]\n[818, 85]]"] ;
383 -> 384 ;
385 [label="gini = 0.121\nsamples = 946\nvalue = [[61, 885]\n[885, 61]]"] ;
383 -> 385 ;
386 [label="gini = 0.214\nsamples = 434\nvalue = [[53, 381]\n[381, 53]]"] ;
382 -> 386 ;
387 [label="부상병코드 <= 12.5\ngini = 0.08\nsamples = 840\nvalue = [[35, 805]\n[805, 35]]"] ;
379 -> 387 ;
388 [label="gini = 0.048\nsamples = 328\nvalue = [[8, 320]\n[320, 8]]"] ;
387 -> 388 ;
389 [label="시도코드 <= 30.5\ngini = 0.1\nsamples = 512\nvalue = [[27, 485]\n[485, 27]]"] ;
387 -> 389 ;
390 [label="gini = 0.147\nsamples = 237\nvalue = [[19, 218]\n[218, 19]]"] ;
389 -> 390 ;
391 [label="gini = 0.056\nsamples = 275\nvalue = [[8, 267]\n[267, 8]]"] ;
389 -> 391 ;
392 [label="주상병코드 <= 16.5\ngini = 0.255\nsamples = 10749\nvalue = [[1611, 9138]\n[9138, 1611]]"] ;
156 -> 392 ;
393 [label="gini = 0.324\nsamples = 428\nvalue = [[341, 87]\n[87, 341]]"] ;
392 -> 393 ;
394 [label="부상병코드 <= 11.5\ngini = 0.216\nsamples = 10321\nvalue = [[1270, 9051]\n[9051, 1270]]"] ;
392 -> 394 ;
395 [label="부상병코드 <= 6.5\ngini = 0.184\nsamples = 6670\nvalue = [[682, 5988]\n[5988, 682]]"] ;
394 -> 395 ;
396 [label="성별코드 <= 1.5\ngini = 0.3\nsamples = 761\nvalue = [[140, 621]\n[621, 140]]"] ;
395 -> 396 ;
397 [label="gini = 0.388\nsamples = 311\nvalue = [[82, 229]\n[229, 82]]"] ;
396 -> 397 ;
398 [label="연령대코드 <= 9.5\ngini = 0.225\nsamples = 450\nvalue = [[58, 392]\n[392, 58]]"] ;
396 -> 398 ;
399 [label="gini = 0.141\nsamples = 222\nvalue = [[17, 205]\n[205, 17]]"] ;
398 -> 399 ;
400 [label="gini = 0.295\nsamples = 228\nvalue = [[41, 187]\n[187, 41]]"] ;
398 -> 400 ;
401 [label="진료과목코드 <= 1.5\ngini = 0.167\nsamples = 5909\nvalue = [[542, 5367]\n[5367, 542]]"] ;
395 -> 401 ;
402 [label="시도코드 <= 26.5\ngini = 0.08\nsamples = 1420\nvalue = [[59, 1361]\n[1361, 59]]"] ;
401 -> 402 ;
403 [label="gini = 0.027\nsamples = 369\nvalue = [[5, 364]\n[364, 5]]"] ;
402 -> 403 ;
404 [label="시도코드 <= 38.5\ngini = 0.097\nsamples = 1051\nvalue = [[54, 997]\n[997, 54]]"] ;
402 -> 404 ;
405 [label="gini = 0.156\nsamples = 258\nvalue = [[22, 236]\n[236, 22]]"] ;
404 -> 405 ;
406 [label="시도코드 <= 45.5\ngini = 0.077\nsamples = 793\nvalue = [[32, 761]\n[761, 32]]"] ;
404 -> 406 ;
407 [label="시도코드 <= 41.5\ngini = 0.092\nsamples = 576\nvalue = [[28, 548]\n[548, 28]]"] ;
406 -> 407 ;
408 [label="gini = 0.062\nsamples = 375\nvalue = [[12, 363]\n[363, 12]]"] ;
407 -> 408 ;
409 [label="gini = 0.147\nsamples = 201\nvalue = [[16, 185]\n[185, 16]]"] ;
407 -> 409 ;
410 [label="gini = 0.036\nsamples = 217\nvalue = [[4, 213]\n[213, 4]]"] ;
406 -> 410 ;
411 [label="진료과목코드 <= 4.5\ngini = 0.192\nsamples = 4489\nvalue = [[483, 4006]\n[4006, 483]]"] ;
401 -> 411 ;
412 [label="gini = 0.354\nsamples = 353\nvalue = [[81, 272]\n[272, 81]]"] ;
411 -> 412 ;
413 [label="진료과목코드 <= 11.5\ngini = 0.175\nsamples = 4136\nvalue = [[402, 3734]\n[3734, 402]]"] ;
411 -> 413 ;
414 [label="연령대코드 <= 9.5\ngini = 0.204\nsamples = 2979\nvalue = [[343, 2636]\n[2636, 343]]"] ;
413 -> 414 ;
415 [label="시도코드 <= 44.5\ngini = 0.154\nsamples = 1404\nvalue = [[118, 1286]\n[1286, 118]]"] ;
414 -> 415 ;
416 [label="gini = 0.126\nsamples = 1139\nvalue = [[77, 1062]\n[1062, 77]]"] ;
415 -> 416 ;
417 [label="gini = 0.262\nsamples = 265\nvalue = [[41, 224]\n[224, 41]]"] ;
415 -> 417 ;
418 [label="시도코드 <= 18.5\ngini = 0.245\nsamples = 1575\nvalue = [[225, 1350]\n[1350, 225]]"] ;
414 -> 418 ;
419 [label="gini = 0.148\nsamples = 286\nvalue = [[23, 263]\n[263, 23]]"] ;
418 -> 419 ;
420 [label="gini = 0.264\nsamples = 1289\nvalue = [[202, 1087]\n[1087, 202]]"] ;
418 -> 420 ;
421 [label="부상병코드 <= 7.5\ngini = 0.097\nsamples = 1157\nvalue = [[59, 1098]\n[1098, 59]]"] ;
413 -> 421 ;
422 [label="주상병코드 <= 22.0\ngini = 0.022\nsamples = 529\nvalue = [[6, 523]\n[523, 6]]"] ;
421 -> 422 ;
423 [label="gini = 0.043\nsamples = 274\nvalue = [[6, 268]\n[268, 6]]"] ;
422 -> 423 ;
424 [label="gini = 0.0\nsamples = 255\nvalue = [[0, 255]\n[255, 0]]"] ;
422 -> 424 ;
425 [label="부상병코드 <= 9.5\ngini = 0.155\nsamples = 628\nvalue = [[53, 575]\n[575, 53]]"] ;
421 -> 425 ;
426 [label="gini = 0.288\nsamples = 246\nvalue = [[43, 203]\n[203, 43]]"] ;
425 -> 426 ;
427 [label="gini = 0.051\nsamples = 382\nvalue = [[10, 372]\n[372, 10]]"] ;
425 -> 427 ;
428 [label="연령대코드 <= 11.5\ngini = 0.27\nsamples = 3651\nvalue = [[588, 3063]\n[3063, 588]]"] ;
394 -> 428 ;
429 [label="시도코드 <= 18.5\ngini = 0.204\nsamples = 1817\nvalue = [[209, 1608]\n[1608, 209]]"] ;
428 -> 429 ;
430 [label="gini = 0.105\nsamples = 413\nvalue = [[23, 390]\n[390, 23]]"] ;
429 -> 430 ;
431 [label="성별코드 <= 1.5\ngini = 0.23\nsamples = 1404\nvalue = [[186, 1218]\n[1218, 186]]"] ;
429 -> 431 ;
432 [label="연령대코드 <= 9.5\ngini = 0.277\nsamples = 657\nvalue = [[109, 548]\n[548, 109]]"] ;
431 -> 432 ;
433 [label="연령대코드 <= 6.5\ngini = 0.312\nsamples = 440\nvalue = [[85, 355]\n[355, 85]]"] ;
432 -> 433 ;
434 [label="gini = 0.343\nsamples = 214\nvalue = [[47, 167]\n[167, 47]]"] ;
433 -> 434 ;
435 [label="gini = 0.28\nsamples = 226\nvalue = [[38, 188]\n[188, 38]]"] ;
433 -> 435 ;
436 [label="gini = 0.197\nsamples = 217\nvalue = [[24, 193]\n[193, 24]]"] ;
432 -> 436 ;
437 [label="진료과목코드 <= 7.5\ngini = 0.185\nsamples = 747\nvalue = [[77, 670]\n[670, 77]]"] ;
431 -> 437 ;
438 [label="연령대코드 <= 8.5\ngini = 0.226\nsamples = 540\nvalue = [[70, 470]\n[470, 70]]"] ;
437 -> 438 ;
439 [label="gini = 0.179\nsamples = 222\nvalue = [[22, 200]\n[200, 22]]"] ;
438 -> 439 ;
440 [label="gini = 0.256\nsamples = 318\nvalue = [[48, 270]\n[270, 48]]"] ;
438 -> 440 ;
441 [label="gini = 0.065\nsamples = 207\nvalue = [[7, 200]\n[200, 7]]"] ;
437 -> 441 ;
442 [label="진료과목코드 <= 8.0\ngini = 0.328\nsamples = 1834\nvalue = [[379, 1455]\n[1455, 379]]"] ;
428 -> 442 ;
443 [label="진료과목코드 <= 4.5\ngini = 0.347\nsamples = 1621\nvalue = [[362, 1259]\n[1259, 362]]"] ;
442 -> 443 ;
444 [label="gini = 0.223\nsamples = 282\nvalue = [[36, 246]\n[246, 36]]"] ;
443 -> 444 ;
445 [label="성별코드 <= 1.5\ngini = 0.368\nsamples = 1339\nvalue = [[326, 1013]\n[1013, 326]]"] ;
443 -> 445 ;
446 [label="연령대코드 <= 13.5\ngini = 0.291\nsamples = 407\nvalue = [[72, 335]\n[335, 72]]"] ;
445 -> 446 ;
447 [label="gini = 0.313\nsamples = 201\nvalue = [[39, 162]\n[162, 39]]"] ;
446 -> 447 ;
448 [label="gini = 0.269\nsamples = 206\nvalue = [[33, 173]\n[173, 33]]"] ;
446 -> 448 ;
449 [label="시도코드 <= 42.5\ngini = 0.397\nsamples = 932\nvalue = [[254, 678]\n[678, 254]]"] ;
445 -> 449 ;
450 [label="시도코드 <= 27.5\ngini = 0.364\nsamples = 635\nvalue = [[152, 483]\n[483, 152]]"] ;
449 -> 450 ;
451 [label="gini = 0.327\nsamples = 262\nvalue = [[54, 208]\n[208, 54]]"] ;
450 -> 451 ;
452 [label="gini = 0.387\nsamples = 373\nvalue = [[98, 275]\n[275, 98]]"] ;
450 -> 452 ;
453 [label="gini = 0.451\nsamples = 297\nvalue = [[102, 195]\n[195, 102]]"] ;
449 -> 453 ;
454 [label="gini = 0.147\nsamples = 213\nvalue = [[17, 196]\n[196, 17]]"] ;
442 -> 454 ;
455 [label="부상병코드 <= 15.5\ngini = 0.43\nsamples = 18413\nvalue = [[5755, 12658]\n[12658, 5755]]"] ;
1 -> 455 ;
456 [label="주상병코드 <= 21.0\ngini = 0.17\nsamples = 2181\nvalue = [[1977, 204]\n[204, 1977]]"] ;
455 -> 456 ;
457 [label="진료과목코드 <= 16.5\ngini = 0.054\nsamples = 1526\nvalue = [[1484, 42]\n[42, 1484]]"] ;
456 -> 457 ;
458 [label="연령대코드 <= 6.5\ngini = 0.065\nsamples = 1226\nvalue = [[1185, 41]\n[41, 1185]]"] ;
457 -> 458 ;
459 [label="gini = 0.121\nsamples = 308\nvalue = [[288, 20]\n[20, 288]]"] ;
458 -> 459 ;
460 [label="시도코드 <= 26.5\ngini = 0.045\nsamples = 918\nvalue = [[897, 21]\n[21, 897]]"] ;
458 -> 460 ;
461 [label="gini = 0.028\nsamples = 212\nvalue = [[209, 3]\n[3, 209]]"] ;
460 -> 461 ;
462 [label="시도코드 <= 41.5\ngini = 0.05\nsamples = 706\nvalue = [[688, 18]\n[18, 688]]"] ;
460 -> 462 ;
463 [label="gini = 0.065\nsamples = 358\nvalue = [[346, 12]\n[12, 346]]"] ;
462 -> 463 ;
464 [label="gini = 0.034\nsamples = 348\nvalue = [[342, 6]\n[6, 342]]"] ;
462 -> 464 ;
465 [label="gini = 0.007\nsamples = 300\nvalue = [[299, 1]\n[1, 299]]"] ;
457 -> 465 ;
466 [label="진료과목코드 <= 10.5\ngini = 0.372\nsamples = 655\nvalue = [[493, 162]\n[162, 493]]"] ;
456 -> 466 ;
467 [label="gini = 0.497\nsamples = 351\nvalue = [[190, 161]\n[161, 190]]"] ;
466 -> 467 ;
468 [label="gini = 0.007\nsamples = 304\nvalue = [[303, 1]\n[1, 303]]"] ;
466 -> 468 ;
469 [label="주상병코드 <= 13.5\ngini = 0.357\nsamples = 16232\nvalue = [[3778, 12454]\n[12454, 3778]]"] ;
455 -> 469 ;
470 [label="부상병코드 <= 23.5\ngini = 0.267\nsamples = 10359\nvalue = [[1645, 8714]\n[8714, 1645]]"] ;
469 -> 470 ;
471 [label="주상병코드 <= 7.5\ngini = 0.215\nsamples = 9193\nvalue = [[1129, 8064]\n[8064, 1129]]"] ;
470 -> 471 ;
472 [label="진료과목코드 <= 3.5\ngini = 0.359\nsamples = 1923\nvalue = [[451, 1472]\n[1472, 451]]"] ;
471 -> 472 ;
473 [label="주상병코드 <= 3.5\ngini = 0.175\nsamples = 961\nvalue = [[93, 868]\n[868, 93]]"] ;
472 -> 473 ;
474 [label="연령대코드 <= 6.5\ngini = 0.262\nsamples = 433\nvalue = [[67, 366]\n[366, 67]]"] ;
473 -> 474 ;
475 [label="gini = 0.273\nsamples = 202\nvalue = [[33, 169]\n[169, 33]]"] ;
474 -> 475 ;
476 [label="gini = 0.251\nsamples = 231\nvalue = [[34, 197]\n[197, 34]]"] ;
474 -> 476 ;
477 [label="진료과목코드 <= 1.5\ngini = 0.094\nsamples = 528\nvalue = [[26, 502]\n[502, 26]]"] ;
473 -> 477 ;
478 [label="gini = 0.047\nsamples = 250\nvalue = [[6, 244]\n[244, 6]]"] ;
477 -> 478 ;
479 [label="gini = 0.134\nsamples = 278\nvalue = [[20, 258]\n[258, 20]]"] ;
477 -> 479 ;
480 [label="부상병코드 <= 17.5\ngini = 0.467\nsamples = 962\nvalue = [[358, 604]\n[604, 358]]"] ;
472 -> 480 ;
481 [label="주상병코드 <= 1.5\ngini = 0.493\nsamples = 754\nvalue = [[332, 422]\n[422, 332]]"] ;
480 -> 481 ;
482 [label="gini = 0.268\nsamples = 201\nvalue = [[32, 169]\n[169, 32]]"] ;
481 -> 482 ;
483 [label="주상병코드 <= 6.5\ngini = 0.496\nsamples = 553\nvalue = [[300, 253]\n[253, 300]]"] ;
481 -> 483 ;
484 [label="gini = 0.382\nsamples = 303\nvalue = [[225, 78]\n[78, 225]]"] ;
483 -> 484 ;
485 [label="gini = 0.42\nsamples = 250\nvalue = [[75, 175]\n[175, 75]]"] ;
483 -> 485 ;
486 [label="gini = 0.219\nsamples = 208\nvalue = [[26, 182]\n[182, 26]]"] ;
480 -> 486 ;
487 [label="진료과목코드 <= 3.5\ngini = 0.169\nsamples = 7270\nvalue = [[678, 6592]\n[6592, 678]]"] ;
471 -> 487 ;
488 [label="시도코드 <= 26.5\ngini = 0.084\nsamples = 2179\nvalue = [[96, 2083]\n[2083, 96]]"] ;
487 -> 488 ;
489 [label="주상병코드 <= 9.5\ngini = 0.016\nsamples = 489\nvalue = [[4, 485]\n[485, 4]]"] ;
488 -> 489 ;
490 [label="gini = 0.0\nsamples = 264\nvalue = [[0, 264]\n[264, 0]]"] ;
489 -> 490 ;
491 [label="gini = 0.035\nsamples = 225\nvalue = [[4, 221]\n[221, 4]]"] ;
489 -> 491 ;
492 [label="시도코드 <= 38.5\ngini = 0.103\nsamples = 1690\nvalue = [[92, 1598]\n[1598, 92]]"] ;
488 -> 492 ;
493 [label="주상병코드 <= 9.5\ngini = 0.164\nsamples = 423\nvalue = [[38, 385]\n[385, 38]]"] ;
492 -> 493 ;
494 [label="gini = 0.159\nsamples = 218\nvalue = [[19, 199]\n[199, 19]]"] ;
493 -> 494 ;
495 [label="gini = 0.168\nsamples = 205\nvalue = [[19, 186]\n[186, 19]]"] ;
493 -> 495 ;
496 [label="시도코드 <= 41.5\ngini = 0.082\nsamples = 1267\nvalue = [[54, 1213]\n[1213, 54]]"] ;
492 -> 496 ;
497 [label="주상병코드 <= 9.5\ngini = 0.046\nsamples = 515\nvalue = [[12, 503]\n[503, 12]]"] ;
496 -> 497 ;
498 [label="gini = 0.053\nsamples = 294\nvalue = [[8, 286]\n[286, 8]]"] ;
497 -> 498 ;
499 [label="gini = 0.036\nsamples = 221\nvalue = [[4, 217]\n[217, 4]]"] ;
497 -> 499 ;
500 [label="연령대코드 <= 11.5\ngini = 0.105\nsamples = 752\nvalue = [[42, 710]\n[710, 42]]"] ;
496 -> 500 ;
501 [label="gini = 0.079\nsamples = 293\nvalue = [[12, 281]\n[281, 12]]"] ;
500 -> 501 ;
502 [label="연령대코드 <= 14.5\ngini = 0.122\nsamples = 459\nvalue = [[30, 429]\n[429, 30]]"] ;
500 -> 502 ;
503 [label="gini = 0.129\nsamples = 217\nvalue = [[15, 202]\n[202, 15]]"] ;
502 -> 503 ;
504 [label="gini = 0.116\nsamples = 242\nvalue = [[15, 227]\n[227, 15]]"] ;
502 -> 504 ;
505 [label="진료과목코드 <= 4.5\ngini = 0.203\nsamples = 5091\nvalue = [[582, 4509]\n[4509, 582]]"] ;
487 -> 505 ;
506 [label="gini = 0.464\nsamples = 317\nvalue = [[116, 201]\n[201, 116]]"] ;
505 -> 506 ;
507 [label="주상병코드 <= 11.5\ngini = 0.176\nsamples = 4774\nvalue = [[466, 4308]\n[4308, 466]]"] ;
505 -> 507 ;
508 [label="진료과목코드 <= 12.0\ngini = 0.105\nsamples = 1414\nvalue = [[79, 1335]\n[1335, 79]]"] ;
507 -> 508 ;
509 [label="gini = 0.201\nsamples = 327\nvalue = [[37, 290]\n[290, 37]]"] ;
508 -> 509 ;
510 [label="시도코드 <= 26.5\ngini = 0.074\nsamples = 1087\nvalue = [[42, 1045]\n[1045, 42]]"] ;
508 -> 510 ;
511 [label="gini = 0.008\nsamples = 257\nvalue = [[1, 256]\n[256, 1]]"] ;
510 -> 511 ;
512 [label="시도코드 <= 38.5\ngini = 0.094\nsamples = 830\nvalue = [[41, 789]\n[789, 41]]"] ;
510 -> 512 ;
513 [label="gini = 0.139\nsamples = 200\nvalue = [[15, 185]\n[185, 15]]"] ;
512 -> 513 ;
514 [label="gini = 0.079\nsamples = 630\nvalue = [[26, 604]\n[604, 26]]"] ;
512 -> 514 ;
515 [label="연령대코드 <= 14.5\ngini = 0.204\nsamples = 3360\nvalue = [[387, 2973]\n[2973, 387]]"] ;
507 -> 515 ;
516 [label="주상병코드 <= 12.5\ngini = 0.223\nsamples = 2529\nvalue = [[324, 2205]\n[2205, 324]]"] ;
515 -> 516 ;
517 [label="진료과목코드 <= 6.5\ngini = 0.202\nsamples = 2087\nvalue = [[238, 1849]\n[1849, 238]]"] ;
516 -> 517 ;
518 [label="gini = 0.222\nsamples = 1799\nvalue = [[229, 1570]\n[1570, 229]]"] ;
517 -> 518 ;
519 [label="gini = 0.061\nsamples = 288\nvalue = [[9, 279]\n[279, 9]]"] ;
517 -> 519 ;
520 [label="연령대코드 <= 10.5\ngini = 0.313\nsamples = 442\nvalue = [[86, 356]\n[356, 86]]"] ;
516 -> 520 ;
521 [label="gini = 0.36\nsamples = 229\nvalue = [[54, 175]\n[175, 54]]"] ;
520 -> 521 ;
522 [label="gini = 0.255\nsamples = 213\nvalue = [[32, 181]\n[181, 32]]"] ;
520 -> 522 ;
523 [label="성별코드 <= 1.5\ngini = 0.14\nsamples = 831\nvalue = [[63, 768]\n[768, 63]]"] ;
515 -> 523 ;
524 [label="gini = 0.068\nsamples = 312\nvalue = [[11, 301]\n[301, 11]]"] ;
523 -> 524 ;
525 [label="시도코드 <= 41.5\ngini = 0.18\nsamples = 519\nvalue = [[52, 467]\n[467, 52]]"] ;
523 -> 525 ;
526 [label="gini = 0.154\nsamples = 309\nvalue = [[26, 283]\n[283, 26]]"] ;
525 -> 526 ;
527 [label="gini = 0.217\nsamples = 210\nvalue = [[26, 184]\n[184, 26]]"] ;
525 -> 527 ;
528 [label="성별코드 <= 1.5\ngini = 0.493\nsamples = 1166\nvalue = [[516, 650]\n[650, 516]]"] ;
470 -> 528 ;
529 [label="연령대코드 <= 13.5\ngini = 0.455\nsamples = 478\nvalue = [[167, 311]\n[311, 167]]"] ;
528 -> 529 ;
530 [label="gini = 0.478\nsamples = 248\nvalue = [[98, 150]\n[150, 98]]"] ;
529 -> 530 ;
531 [label="gini = 0.42\nsamples = 230\nvalue = [[69, 161]\n[161, 69]]"] ;
529 -> 531 ;
532 [label="연령대코드 <= 11.5\ngini = 0.5\nsamples = 688\nvalue = [[349, 339]\n[339, 349]]"] ;
528 -> 532 ;
533 [label="gini = 0.481\nsamples = 216\nvalue = [[87, 129]\n[129, 87]]"] ;
532 -> 533 ;
534 [label="시도코드 <= 38.5\ngini = 0.494\nsamples = 472\nvalue = [[262, 210]\n[210, 262]]"] ;
532 -> 534 ;
535 [label="gini = 0.5\nsamples = 205\nvalue = [[103, 102]\n[102, 103]]"] ;
534 -> 535 ;
536 [label="gini = 0.482\nsamples = 267\nvalue = [[159, 108]\n[108, 159]]"] ;
534 -> 536 ;
537 [label="주상병코드 <= 15.5\ngini = 0.463\nsamples = 5873\nvalue = [[2133, 3740]\n[3740, 2133]]"] ;
469 -> 537 ;
538 [label="부상병코드 <= 18.0\ngini = 0.158\nsamples = 475\nvalue = [[434, 41]\n[41, 434]]"] ;
537 -> 538 ;
539 [label="gini = 0.04\nsamples = 246\nvalue = [[241, 5]\n[5, 241]]"] ;
538 -> 539 ;
540 [label="gini = 0.265\nsamples = 229\nvalue = [[193, 36]\n[36, 193]]"] ;
538 -> 540 ;
541 [label="연령대코드 <= 10.5\ngini = 0.431\nsamples = 5398\nvalue = [[1699, 3699]\n[3699, 1699]]"] ;
537 -> 541 ;
542 [label="시도코드 <= 42.5\ngini = 0.357\nsamples = 2610\nvalue = [[608, 2002]\n[2002, 608]]"] ;
541 -> 542 ;
543 [label="진료과목코드 <= 9.5\ngini = 0.331\nsamples = 1993\nvalue = [[417, 1576]\n[1576, 417]]"] ;
542 -> 543 ;
544 [label="연령대코드 <= 3.5\ngini = 0.318\nsamples = 1752\nvalue = [[348, 1404]\n[1404, 348]]"] ;
543 -> 544 ;
545 [label="gini = 0.095\nsamples = 341\nvalue = [[17, 324]\n[324, 17]]"] ;
544 -> 545 ;
546 [label="시도코드 <= 18.5\ngini = 0.359\nsamples = 1411\nvalue = [[331, 1080]\n[1080, 331]]"] ;
544 -> 546 ;
547 [label="gini = 0.245\nsamples = 385\nvalue = [[55, 330]\n[330, 55]]"] ;
546 -> 547 ;
548 [label="시도코드 <= 38.5\ngini = 0.393\nsamples = 1026\nvalue = [[276, 750]\n[750, 276]]"] ;
546 -> 548 ;
549 [label="성별코드 <= 1.5\ngini = 0.423\nsamples = 480\nvalue = [[146, 334]\n[334, 146]]"] ;
548 -> 549 ;
550 [label="gini = 0.433\nsamples = 252\nvalue = [[80, 172]\n[172, 80]]"] ;
549 -> 550 ;
551 [label="gini = 0.411\nsamples = 228\nvalue = [[66, 162]\n[162, 66]]"] ;
549 -> 551 ;
552 [label="성별코드 <= 1.5\ngini = 0.363\nsamples = 546\nvalue = [[130, 416]\n[416, 130]]"] ;
548 -> 552 ;
553 [label="gini = 0.388\nsamples = 300\nvalue = [[79, 221]\n[221, 79]]"] ;
552 -> 553 ;
554 [label="gini = 0.329\nsamples = 246\nvalue = [[51, 195]\n[195, 51]]"] ;
552 -> 554 ;
555 [label="gini = 0.409\nsamples = 241\nvalue = [[69, 172]\n[172, 69]]"] ;
543 -> 555 ;
556 [label="시도코드 <= 46.5\ngini = 0.427\nsamples = 617\nvalue = [[191, 426]\n[426, 191]]"] ;
542 -> 556 ;
557 [label="gini = 0.463\nsamples = 376\nvalue = [[137, 239]\n[239, 137]]"] ;
556 -> 557 ;
558 [label="gini = 0.348\nsamples = 241\nvalue = [[54, 187]\n[187, 54]]"] ;
556 -> 558 ;
559 [label="부상병코드 <= 17.5\ngini = 0.476\nsamples = 2788\nvalue = [[1091, 1697]\n[1697, 1091]]"] ;
541 -> 559 ;
560 [label="gini = 0.228\nsamples = 244\nvalue = [[32, 212]\n[212, 32]]"] ;
559 -> 560 ;
561 [label="시도코드 <= 42.5\ngini = 0.486\nsamples = 2544\nvalue = [[1059, 1485]\n[1485, 1059]]"] ;
559 -> 561 ;
562 [label="진료과목코드 <= 5.5\ngini = 0.467\nsamples = 1715\nvalue = [[636, 1079]\n[1079, 636]]"] ;
561 -> 562 ;
563 [label="연령대코드 <= 15.5\ngini = 0.475\nsamples = 1488\nvalue = [[579, 909]\n[909, 579]]"] ;
562 -> 563 ;
564 [label="시도코드 <= 30.5\ngini = 0.482\nsamples = 1267\nvalue = [[513, 754]\n[754, 513]]"] ;
563 -> 564 ;
565 [label="시도코드 <= 27.5\ngini = 0.491\nsamples = 750\nvalue = [[325, 425]\n[425, 325]]"] ;
564 -> 565 ;
566 [label="gini = 0.467\nsamples = 492\nvalue = [[183, 309]\n[309, 183]]"] ;
565 -> 566 ;
567 [label="gini = 0.495\nsamples = 258\nvalue = [[142, 116]\n[116, 142]]"] ;
565 -> 567 ;
568 [label="성별코드 <= 1.5\ngini = 0.463\nsamples = 517\nvalue = [[188, 329]\n[329, 188]]"] ;
564 -> 568 ;
569 [label="gini = 0.44\nsamples = 226\nvalue = [[74, 152]\n[152, 74]]"] ;
568 -> 569 ;
570 [label="gini = 0.477\nsamples = 291\nvalue = [[114, 177]\n[177, 114]]"] ;
568 -> 570 ;
571 [label="gini = 0.419\nsamples = 221\nvalue = [[66, 155]\n[155, 66]]"] ;
563 -> 571 ;
572 [label="gini = 0.376\nsamples = 227\nvalue = [[57, 170]\n[170, 57]]"] ;
562 -> 572 ;
573 [label="성별코드 <= 1.5\ngini = 0.5\nsamples = 829\nvalue = [[423, 406]\n[406, 423]]"] ;
561 -> 573 ;
574 [label="gini = 0.488\nsamples = 330\nvalue = [[139, 191]\n[191, 139]]"] ;
573 -> 574 ;
575 [label="연령대코드 <= 13.5\ngini = 0.49\nsamples = 499\nvalue = [[284, 215]\n[215, 284]]"] ;
573 -> 575 ;
576 [label="gini = 0.468\nsamples = 262\nvalue = [[164, 98]\n[98, 164]]"] ;
575 -> 576 ;
577 [label="gini = 0.5\nsamples = 237\nvalue = [[120, 117]\n[117, 120]]"] ;
575 -> 577 ;
578 [label="연령대코드 <= 15.5\ngini = 0.321\nsamples = 260276\nvalue = [[207960, 52316]\n[52316, 207960]]"] ;
0 -> 578 [labeldistance=2.5, labelangle=-45, headlabel="False"] ;
579 [label="진료과목코드 <= 19.5\ngini = 0.36\nsamples = 188239\nvalue = [[143935, 44304]\n[44304, 143935]]"] ;
578 -> 579 ;
580 [label="주상병코드 <= 3.5\ngini = 0.381\nsamples = 158281\nvalue = [[117689, 40592]\n[40592, 117689]]"] ;
579 -> 580 ;
581 [label="진료과목코드 <= 13.5\ngini = 0.252\nsamples = 28754\nvalue = [[24493, 4261]\n[4261, 24493]]"] ;
580 -> 581 ;
582 [label="주상병코드 <= 2.5\ngini = 0.24\nsamples = 27593\nvalue = [[23752, 3841]\n[3841, 23752]]"] ;
581 -> 582 ;
583 [label="주상병코드 <= 1.5\ngini = 0.224\nsamples = 23171\nvalue = [[20195, 2976]\n[2976, 20195]]"] ;
582 -> 583 ;
584 [label="주상병코드 <= 0.5\ngini = 0.289\nsamples = 7732\nvalue = [[6377, 1355]\n[1355, 6377]]"] ;
583 -> 584 ;
585 [label="심결가산율 <= 2.5\ngini = 0.226\nsamples = 5127\nvalue = [[4462, 665]\n[665, 4462]]"] ;
584 -> 585 ;
586 [label="진료과목코드 <= 7.5\ngini = 0.277\nsamples = 2269\nvalue = [[1892, 377]\n[377, 1892]]"] ;
585 -> 586 ;
587 [label="부상병코드 <= 8.5\ngini = 0.221\nsamples = 1196\nvalue = [[1045, 151]\n[151, 1045]]"] ;
586 -> 587 ;
588 [label="gini = 0.092\nsamples = 269\nvalue = [[256, 13]\n[13, 256]]"] ;
587 -> 588 ;
589 [label="연령대코드 <= 9.5\ngini = 0.253\nsamples = 927\nvalue = [[789, 138]\n[138, 789]]"] ;
587 -> 589 ;
590 [label="gini = 0.297\nsamples = 458\nvalue = [[375, 83]\n[83, 375]]"] ;
589 -> 590 ;
591 [label="gini = 0.207\nsamples = 469\nvalue = [[414, 55]\n[55, 414]]"] ;
589 -> 591 ;
592 [label="부상병코드 <= 9.5\ngini = 0.333\nsamples = 1073\nvalue = [[847, 226]\n[226, 847]]"] ;
586 -> 592 ;
593 [label="연령대코드 <= 1.5\ngini = 0.251\nsamples = 652\nvalue = [[556, 96]\n[96, 556]]"] ;
592 -> 593 ;
594 [label="gini = 0.274\nsamples = 373\nvalue = [[312, 61]\n[61, 312]]"] ;
593 -> 594 ;
595 [label="gini = 0.219\nsamples = 279\nvalue = [[244, 35]\n[35, 244]]"] ;
593 -> 595 ;
596 [label="성별코드 <= 1.5\ngini = 0.427\nsamples = 421\nvalue = [[291, 130]\n[130, 291]]"] ;
592 -> 596 ;
597 [label="gini = 0.389\nsamples = 212\nvalue = [[156, 56]\n[56, 156]]"] ;
596 -> 597 ;
598 [label="gini = 0.457\nsamples = 209\nvalue = [[135, 74]\n[74, 135]]"] ;
596 -> 598 ;
599 [label="시도코드 <= 26.5\ngini = 0.181\nsamples = 2858\nvalue = [[2570, 288]\n[288, 2570]]"] ;
585 -> 599 ;
600 [label="부상병코드 <= 9.5\ngini = 0.247\nsamples = 561\nvalue = [[480, 81]\n[81, 480]]"] ;
599 -> 600 ;
601 [label="gini = 0.298\nsamples = 225\nvalue = [[184, 41]\n[41, 184]]"] ;
600 -> 601 ;
602 [label="gini = 0.21\nsamples = 336\nvalue = [[296, 40]\n[40, 296]]"] ;
600 -> 602 ;
603 [label="연령대코드 <= 5.5\ngini = 0.164\nsamples = 2297\nvalue = [[2090, 207]\n[207, 2090]]"] ;
599 -> 603 ;
604 [label="시도코드 <= 42.5\ngini = 0.133\nsamples = 921\nvalue = [[855, 66]\n[66, 855]]"] ;
603 -> 604 ;
605 [label="gini = 0.108\nsamples = 556\nvalue = [[524, 32]\n[32, 524]]"] ;
604 -> 605 ;
606 [label="gini = 0.169\nsamples = 365\nvalue = [[331, 34]\n[34, 331]]"] ;
604 -> 606 ;
607 [label="시도코드 <= 46.5\ngini = 0.184\nsamples = 1376\nvalue = [[1235, 141]\n[141, 1235]]"] ;
603 -> 607 ;
608 [label="gini = 0.171\nsamples = 1069\nvalue = [[968, 101]\n[101, 968]]"] ;
607 -> 608 ;
609 [label="gini = 0.227\nsamples = 307\nvalue = [[267, 40]\n[40, 267]]"] ;
607 -> 609 ;
610 [label="연령대코드 <= 6.5\ngini = 0.389\nsamples = 2605\nvalue = [[1915, 690]\n[690, 1915]]"] ;
584 -> 610 ;
611 [label="연령대코드 <= 1.5\ngini = 0.275\nsamples = 1392\nvalue = [[1163, 229]\n[229, 1163]]"] ;
610 -> 611 ;
612 [label="시도코드 <= 28.5\ngini = 0.231\nsamples = 1020\nvalue = [[884, 136]\n[136, 884]]"] ;
611 -> 612 ;
613 [label="gini = 0.292\nsamples = 259\nvalue = [[213, 46]\n[46, 213]]"] ;
612 -> 613 ;
614 [label="심결가산율 <= 2.5\ngini = 0.209\nsamples = 761\nvalue = [[671, 90]\n[90, 671]]"] ;
612 -> 614 ;
615 [label="gini = 0.234\nsamples = 533\nvalue = [[461, 72]\n[72, 461]]"] ;
614 -> 615 ;
616 [label="gini = 0.145\nsamples = 228\nvalue = [[210, 18]\n[18, 210]]"] ;
614 -> 616 ;
617 [label="gini = 0.375\nsamples = 372\nvalue = [[279, 93]\n[93, 279]]"] ;
611 -> 617 ;
618 [label="시도코드 <= 28.5\ngini = 0.471\nsamples = 1213\nvalue = [[752, 461]\n[461, 752]]"] ;
610 -> 618 ;
619 [label="gini = 0.5\nsamples = 344\nvalue = [[171, 173]\n[173, 171]]"] ;
618 -> 619 ;
620 [label="부상병코드 <= 9.5\ngini = 0.443\nsamples = 869\nvalue = [[581, 288]\n[288, 581]]"] ;
618 -> 620 ;
621 [label="gini = 0.404\nsamples = 392\nvalue = [[282, 110]\n[110, 282]]"] ;
620 -> 621 ;
622 [label="연령대코드 <= 10.5\ngini = 0.468\nsamples = 477\nvalue = [[299, 178]\n[178, 299]]"] ;
620 -> 622 ;
623 [label="gini = 0.44\nsamples = 245\nvalue = [[165, 80]\n[80, 165]]"] ;
622 -> 623 ;
624 [label="gini = 0.488\nsamples = 232\nvalue = [[134, 98]\n[98, 134]]"] ;
622 -> 624 ;
625 [label="심결가산율 <= 2.5\ngini = 0.188\nsamples = 15439\nvalue = [[13818, 1621]\n[1621, 13818]]"] ;
583 -> 625 ;
626 [label="부상병코드 <= 2.5\ngini = 0.049\nsamples = 3024\nvalue = [[2948, 76]\n[76, 2948]]"] ;
625 -> 626 ;
627 [label="연령대코드 <= 11.5\ngini = 0.021\nsamples = 666\nvalue = [[659, 7]\n[7, 659]]"] ;
626 -> 627 ;
628 [label="gini = 0.01\nsamples = 202\nvalue = [[201, 1]\n[1, 201]]"] ;
627 -> 628 ;
629 [label="성별코드 <= 1.5\ngini = 0.026\nsamples = 464\nvalue = [[458, 6]\n[6, 458]]"] ;
627 -> 629 ;
630 [label="gini = 0.009\nsamples = 210\nvalue = [[209, 1]\n[1, 209]]"] ;
629 -> 630 ;
631 [label="gini = 0.039\nsamples = 254\nvalue = [[249, 5]\n[5, 249]]"] ;
629 -> 631 ;
632 [label="진료과목코드 <= 5.5\ngini = 0.057\nsamples = 2358\nvalue = [[2289, 69]\n[69, 2289]]"] ;
626 -> 632 ;
633 [label="부상병코드 <= 4.5\ngini = 0.068\nsamples = 1851\nvalue = [[1786, 65]\n[65, 1786]]"] ;
632 -> 633 ;
634 [label="시도코드 <= 29.5\ngini = 0.102\nsamples = 462\nvalue = [[437, 25]\n[25, 437]]"] ;
633 -> 634 ;
635 [label="gini = 0.127\nsamples = 235\nvalue = [[219, 16]\n[16, 219]]"] ;
634 -> 635 ;
636 [label="gini = 0.076\nsamples = 227\nvalue = [[218, 9]\n[9, 218]]"] ;
634 -> 636 ;
637 [label="부상병코드 <= 8.5\ngini = 0.056\nsamples = 1389\nvalue = [[1349, 40]\n[40, 1349]]"] ;
633 -> 637 ;
638 [label="gini = 0.017\nsamples = 353\nvalue = [[350, 3]\n[3, 350]]"] ;
637 -> 638 ;
639 [label="gini = 0.069\nsamples = 1036\nvalue = [[999, 37]\n[37, 999]]"] ;
637 -> 639 ;
640 [label="연령대코드 <= 11.5\ngini = 0.016\nsamples = 507\nvalue = [[503, 4]\n[4, 503]]"] ;
632 -> 640 ;
641 [label="gini = 0.0\nsamples = 295\nvalue = [[295, 0]\n[0, 295]]"] ;
640 -> 641 ;
642 [label="gini = 0.037\nsamples = 212\nvalue = [[208, 4]\n[4, 208]]"] ;
640 -> 642 ;
643 [label="부상병코드 <= 18.5\ngini = 0.218\nsamples = 12415\nvalue = [[10870, 1545]\n[1545, 10870]]"] ;
625 -> 643 ;
644 [label="부상병코드 <= 2.5\ngini = 0.235\nsamples = 10806\nvalue = [[9338, 1468]\n[1468, 9338]]"] ;
643 -> 644 ;
645 [label="부상병코드 <= 1.5\ngini = 0.155\nsamples = 2946\nvalue = [[2696, 250]\n[250, 2696]]"] ;
644 -> 645 ;
646 [label="시도코드 <= 28.5\ngini = 0.239\nsamples = 648\nvalue = [[558, 90]\n[90, 558]]"] ;
645 -> 646 ;
647 [label="gini = 0.27\nsamples = 242\nvalue = [[203, 39]\n[39, 203]]"] ;
646 -> 647 ;
648 [label="gini = 0.22\nsamples = 406\nvalue = [[355, 51]\n[51, 355]]"] ;
646 -> 648 ;
649 [label="진료과목코드 <= 1.5\ngini = 0.13\nsamples = 2298\nvalue = [[2138, 160]\n[160, 2138]]"] ;
645 -> 649 ;
650 [label="gini = 0.102\nsamples = 1375\nvalue = [[1301, 74]\n[74, 1301]]"] ;
649 -> 650 ;
651 [label="gini = 0.169\nsamples = 923\nvalue = [[837, 86]\n[86, 837]]"] ;
649 -> 651 ;
652 [label="성별코드 <= 1.5\ngini = 0.262\nsamples = 7860\nvalue = [[6642, 1218]\n[1218, 6642]]"] ;
644 -> 652 ;
653 [label="연령대코드 <= 14.5\ngini = 0.226\nsamples = 3992\nvalue = [[3474, 518]\n[518, 3474]]"] ;
652 -> 653 ;
654 [label="gini = 0.217\nsamples = 3219\nvalue = [[2821, 398]\n[398, 2821]]"] ;
653 -> 654 ;
655 [label="gini = 0.262\nsamples = 773\nvalue = [[653, 120]\n[120, 653]]"] ;
653 -> 655 ;
656 [label="부상병코드 <= 4.5\ngini = 0.296\nsamples = 3868\nvalue = [[3168, 700]\n[700, 3168]]"] ;
652 -> 656 ;
657 [label="gini = 0.361\nsamples = 1119\nvalue = [[855, 264]\n[264, 855]]"] ;
656 -> 657 ;
658 [label="gini = 0.267\nsamples = 2749\nvalue = [[2313, 436]\n[436, 2313]]"] ;
656 -> 658 ;
659 [label="시도코드 <= 29.5\ngini = 0.091\nsamples = 1609\nvalue = [[1532, 77]\n[77, 1532]]"] ;
643 -> 659 ;
660 [label="진료과목코드 <= 2.5\ngini = 0.056\nsamples = 793\nvalue = [[770, 23]\n[23, 770]]"] ;
659 -> 660 ;
661 [label="성별코드 <= 1.5\ngini = 0.026\nsamples = 538\nvalue = [[531, 7]\n[7, 531]]"] ;
660 -> 661 ;
662 [label="gini = 0.035\nsamples = 278\nvalue = [[273, 5]\n[5, 273]]"] ;
661 -> 662 ;
663 [label="gini = 0.015\nsamples = 260\nvalue = [[258, 2]\n[2, 258]]"] ;
661 -> 663 ;
664 [label="gini = 0.118\nsamples = 255\nvalue = [[239, 16]\n[16, 239]]"] ;
660 -> 664 ;
665 [label="성별코드 <= 1.5\ngini = 0.124\nsamples = 816\nvalue = [[762, 54]\n[54, 762]]"] ;
659 -> 665 ;
666 [label="시도코드 <= 42.5\ngini = 0.097\nsamples = 448\nvalue = [[425, 23]\n[23, 425]]"] ;
665 -> 666 ;
667 [label="gini = 0.118\nsamples = 206\nvalue = [[193, 13]\n[13, 193]]"] ;
666 -> 667 ;
668 [label="gini = 0.079\nsamples = 242\nvalue = [[232, 10]\n[10, 232]]"] ;
666 -> 668 ;
669 [label="gini = 0.154\nsamples = 368\nvalue = [[337, 31]\n[31, 337]]"] ;
665 -> 669 ;
670 [label="진료과목코드 <= 2.5\ngini = 0.315\nsamples = 4422\nvalue = [[3557, 865]\n[865, 3557]]"] ;
582 -> 670 ;
671 [label="연령대코드 <= 10.5\ngini = 0.355\nsamples = 1496\nvalue = [[1151, 345]\n[345, 1151]]"] ;
670 -> 671 ;
672 [label="gini = 0.432\nsamples = 352\nvalue = [[241, 111]\n[111, 241]]"] ;
671 -> 672 ;
673 [label="시도코드 <= 41.5\ngini = 0.325\nsamples = 1144\nvalue = [[910, 234]\n[234, 910]]"] ;
671 -> 673 ;
674 [label="심결가산율 <= 3.5\ngini = 0.358\nsamples = 744\nvalue = [[570, 174]\n[174, 570]]"] ;
673 -> 674 ;
675 [label="gini = 0.315\nsamples = 404\nvalue = [[325, 79]\n[79, 325]]"] ;
674 -> 675 ;
676 [label="gini = 0.403\nsamples = 340\nvalue = [[245, 95]\n[95, 245]]"] ;
674 -> 676 ;
677 [label="gini = 0.255\nsamples = 400\nvalue = [[340, 60]\n[60, 340]]"] ;
673 -> 677 ;
678 [label="진료과목코드 <= 9.0\ngini = 0.292\nsamples = 2926\nvalue = [[2406, 520]\n[520, 2406]]"] ;
670 -> 678 ;
679 [label="부상병코드 <= 10.5\ngini = 0.24\nsamples = 1572\nvalue = [[1353, 219]\n[219, 1353]]"] ;
678 -> 679 ;
680 [label="부상병코드 <= 7.5\ngini = 0.21\nsamples = 1009\nvalue = [[889, 120]\n[120, 889]]"] ;
679 -> 680 ;
681 [label="시도코드 <= 33.5\ngini = 0.27\nsamples = 441\nvalue = [[370, 71]\n[71, 370]]"] ;
680 -> 681 ;
682 [label="gini = 0.222\nsamples = 204\nvalue = [[178, 26]\n[26, 178]]"] ;
681 -> 682 ;
683 [label="gini = 0.308\nsamples = 237\nvalue = [[192, 45]\n[45, 192]]"] ;
681 -> 683 ;
684 [label="연령대코드 <= 10.5\ngini = 0.158\nsamples = 568\nvalue = [[519, 49]\n[49, 519]]"] ;
680 -> 684 ;
685 [label="gini = 0.1\nsamples = 245\nvalue = [[232, 13]\n[13, 232]]"] ;
684 -> 685 ;
686 [label="gini = 0.198\nsamples = 323\nvalue = [[287, 36]\n[36, 287]]"] ;
684 -> 686 ;
687 [label="진료과목코드 <= 4.5\ngini = 0.29\nsamples = 563\nvalue = [[464, 99]\n[99, 464]]"] ;
679 -> 687 ;
688 [label="gini = 0.383\nsamples = 232\nvalue = [[172, 60]\n[60, 172]]"] ;
687 -> 688 ;
689 [label="gini = 0.208\nsamples = 331\nvalue = [[292, 39]\n[39, 292]]"] ;
687 -> 689 ;
690 [label="부상병코드 <= 3.5\ngini = 0.346\nsamples = 1354\nvalue = [[1053, 301]\n[301, 1053]]"] ;
678 -> 690 ;
691 [label="gini = 0.26\nsamples = 312\nvalue = [[264, 48]\n[48, 264]]"] ;
690 -> 691 ;
692 [label="심결가산율 <= 3.5\ngini = 0.368\nsamples = 1042\nvalue = [[789, 253]\n[253, 789]]"] ;
690 -> 692 ;
693 [label="연령대코드 <= 10.5\ngini = 0.383\nsamples = 647\nvalue = [[480, 167]\n[167, 480]]"] ;
692 -> 693 ;
694 [label="gini = 0.37\nsamples = 444\nvalue = [[335, 109]\n[109, 335]]"] ;
693 -> 694 ;
695 [label="gini = 0.408\nsamples = 203\nvalue = [[145, 58]\n[58, 145]]"] ;
693 -> 695 ;
696 [label="gini = 0.341\nsamples = 395\nvalue = [[309, 86]\n[86, 309]]"] ;
692 -> 696 ;
697 [label="진료과목코드 <= 14.5\ngini = 0.462\nsamples = 1161\nvalue = [[741, 420]\n[420, 741]]"] ;
581 -> 697 ;
698 [label="gini = 0.441\nsamples = 219\nvalue = [[72, 147]\n[147, 72]]"] ;
697 -> 698 ;
699 [label="부상병코드 <= 10.5\ngini = 0.412\nsamples = 942\nvalue = [[669, 273]\n[273, 669]]"] ;
697 -> 699 ;
700 [label="부상병코드 <= 5.5\ngini = 0.352\nsamples = 474\nvalue = [[366, 108]\n[108, 366]]"] ;
699 -> 700 ;
701 [label="gini = 0.419\nsamples = 241\nvalue = [[169, 72]\n[72, 169]]"] ;
700 -> 701 ;
702 [label="gini = 0.261\nsamples = 233\nvalue = [[197, 36]\n[36, 197]]"] ;
700 -> 702 ;
703 [label="연령대코드 <= 13.5\ngini = 0.457\nsamples = 468\nvalue = [[303, 165]\n[165, 303]]"] ;
699 -> 703 ;
704 [label="gini = 0.461\nsamples = 239\nvalue = [[153, 86]\n[86, 153]]"] ;
703 -> 704 ;
705 [label="gini = 0.452\nsamples = 229\nvalue = [[150, 79]\n[79, 150]]"] ;
703 -> 705 ;
706 [label="주상병코드 <= 4.5\ngini = 0.404\nsamples = 129527\nvalue = [[93196, 36331]\n[36331, 93196]]"] ;
580 -> 706 ;
707 [label="진료과목코드 <= 1.5\ngini = 0.491\nsamples = 4465\nvalue = [[1938, 2527]\n[2527, 1938]]"] ;
706 -> 707 ;
708 [label="부상병코드 <= 8.5\ngini = 0.463\nsamples = 3437\nvalue = [[1249, 2188]\n[2188, 1249]]"] ;
707 -> 708 ;
709 [label="시도코드 <= 41.5\ngini = 0.427\nsamples = 2513\nvalue = [[776, 1737]\n[1737, 776]]"] ;
708 -> 709 ;
710 [label="부상병코드 <= 4.5\ngini = 0.389\nsamples = 1635\nvalue = [[433, 1202]\n[1202, 433]]"] ;
709 -> 710 ;
711 [label="심결가산율 <= 3.5\ngini = 0.351\nsamples = 1080\nvalue = [[245, 835]\n[835, 245]]"] ;
710 -> 711 ;
712 [label="성별코드 <= 1.5\ngini = 0.376\nsamples = 768\nvalue = [[193, 575]\n[575, 193]]"] ;
711 -> 712 ;
713 [label="gini = 0.413\nsamples = 388\nvalue = [[113, 275]\n[275, 113]]"] ;
712 -> 713 ;
714 [label="gini = 0.332\nsamples = 380\nvalue = [[80, 300]\n[300, 80]]"] ;
712 -> 714 ;
715 [label="gini = 0.278\nsamples = 312\nvalue = [[52, 260]\n[260, 52]]"] ;
711 -> 715 ;
716 [label="연령대코드 <= 13.5\ngini = 0.448\nsamples = 555\nvalue = [[188, 367]\n[367, 188]]"] ;
710 -> 716 ;
717 [label="gini = 0.437\nsamples = 354\nvalue = [[114, 240]\n[240, 114]]"] ;
716 -> 717 ;
718 [label="gini = 0.465\nsamples = 201\nvalue = [[74, 127]\n[127, 74]]"] ;
716 -> 718 ;
719 [label="연령대코드 <= 12.5\ngini = 0.476\nsamples = 878\nvalue = [[343, 535]\n[535, 343]]"] ;
709 -> 719 ;
720 [label="gini = 0.434\nsamples = 390\nvalue = [[124, 266]\n[266, 124]]"] ;
719 -> 720 ;
721 [label="시도코드 <= 46.5\ngini = 0.495\nsamples = 488\nvalue = [[219, 269]\n[269, 219]]"] ;
719 -> 721 ;
722 [label="gini = 0.5\nsamples = 281\nvalue = [[137, 144]\n[144, 137]]"] ;
721 -> 722 ;
723 [label="gini = 0.478\nsamples = 207\nvalue = [[82, 125]\n[125, 82]]"] ;
721 -> 723 ;
724 [label="시도코드 <= 26.5\ngini = 0.5\nsamples = 924\nvalue = [[473, 451]\n[451, 473]]"] ;
708 -> 724 ;
725 [label="gini = 0.474\nsamples = 212\nvalue = [[82, 130]\n[130, 82]]"] ;
724 -> 725 ;
726 [label="연령대코드 <= 13.5\ngini = 0.495\nsamples = 712\nvalue = [[391, 321]\n[321, 391]]"] ;
724 -> 726 ;
727 [label="성별코드 <= 1.5\ngini = 0.5\nsamples = 502\nvalue = [[257, 245]\n[245, 257]]"] ;
726 -> 727 ;
728 [label="gini = 0.487\nsamples = 256\nvalue = [[149, 107]\n[107, 149]]"] ;
727 -> 728 ;
729 [label="gini = 0.493\nsamples = 246\nvalue = [[108, 138]\n[138, 108]]"] ;
727 -> 729 ;
730 [label="gini = 0.462\nsamples = 210\nvalue = [[134, 76]\n[76, 134]]"] ;
726 -> 730 ;
731 [label="진료과목코드 <= 8.5\ngini = 0.442\nsamples = 1028\nvalue = [[689, 339]\n[339, 689]]"] ;
707 -> 731 ;
732 [label="진료과목코드 <= 4.5\ngini = 0.291\nsamples = 572\nvalue = [[471, 101]\n[101, 471]]"] ;
731 -> 732 ;
733 [label="gini = 0.383\nsamples = 275\nvalue = [[204, 71]\n[71, 204]]"] ;
732 -> 733 ;
734 [label="gini = 0.182\nsamples = 297\nvalue = [[267, 30]\n[30, 267]]"] ;
732 -> 734 ;
735 [label="부상병코드 <= 6.5\ngini = 0.499\nsamples = 456\nvalue = [[218, 238]\n[238, 218]]"] ;
731 -> 735 ;
736 [label="gini = 0.479\nsamples = 209\nvalue = [[83, 126]\n[126, 83]]"] ;
735 -> 736 ;
737 [label="gini = 0.496\nsamples = 247\nvalue = [[135, 112]\n[112, 135]]"] ;
735 -> 737 ;
738 [label="진료과목코드 <= 11.5\ngini = 0.394\nsamples = 125062\nvalue = [[91258, 33804]\n[33804, 91258]]"] ;
706 -> 738 ;
739 [label="주상병코드 <= 13.5\ngini = 0.38\nsamples = 115352\nvalue = [[85916, 29436]\n[29436, 85916]]"] ;
738 -> 739 ;
740 [label="진료과목코드 <= 1.5\ngini = 0.406\nsamples = 83710\nvalue = [[59982, 23728]\n[23728, 59982]]"] ;
739 -> 740 ;
741 [label="주상병코드 <= 7.5\ngini = 0.452\nsamples = 23654\nvalue = [[15490, 8164]\n[8164, 15490]]"] ;
740 -> 741 ;
742 [label="심결가산율 <= 2.5\ngini = 0.215\nsamples = 1077\nvalue = [[945, 132]\n[132, 945]]"] ;
741 -> 742 ;
743 [label="연령대코드 <= 13.5\ngini = 0.129\nsamples = 777\nvalue = [[723, 54]\n[54, 723]]"] ;
742 -> 743 ;
744 [label="gini = 0.21\nsamples = 328\nvalue = [[289, 39]\n[39, 289]]"] ;
743 -> 744 ;
745 [label="gini = 0.065\nsamples = 449\nvalue = [[434, 15]\n[15, 434]]"] ;
743 -> 745 ;
746 [label="gini = 0.385\nsamples = 300\nvalue = [[222, 78]\n[78, 222]]"] ;
742 -> 746 ;
747 [label="주상병코드 <= 11.5\ngini = 0.458\nsamples = 22577\nvalue = [[14545, 8032]\n[8032, 14545]]"] ;
741 -> 747 ;
748 [label="부상병코드 <= 3.5\ngini = 0.446\nsamples = 18069\nvalue = [[12005, 6064]\n[6064, 12005]]"] ;
747 -> 748 ;
749 [label="부상병코드 <= 1.5\ngini = 0.329\nsamples = 1412\nvalue = [[1119, 293]\n[293, 1119]]"] ;
748 -> 749 ;
750 [label="gini = 0.364\nsamples = 745\nvalue = [[567, 178]\n[178, 567]]"] ;
749 -> 750 ;
751 [label="gini = 0.285\nsamples = 667\nvalue = [[552, 115]\n[115, 552]]"] ;
749 -> 751 ;
752 [label="부상병코드 <= 4.5\ngini = 0.453\nsamples = 16657\nvalue = [[10886, 5771]\n[5771, 10886]]"] ;
748 -> 752 ;
753 [label="gini = 0.494\nsamples = 2379\nvalue = [[1321, 1058]\n[1058, 1321]]"] ;
752 -> 753 ;
754 [label="gini = 0.442\nsamples = 14278\nvalue = [[9565, 4713]\n[4713, 9565]]"] ;
752 -> 754 ;
755 [label="부상병코드 <= 12.5\ngini = 0.492\nsamples = 4508\nvalue = [[2540, 1968]\n[1968, 2540]]"] ;
747 -> 755 ;
756 [label="부상병코드 <= 2.5\ngini = 0.499\nsamples = 3472\nvalue = [[1804, 1668]\n[1668, 1804]]"] ;
755 -> 756 ;
757 [label="gini = 0.25\nsamples = 266\nvalue = [[227, 39]\n[39, 227]]"] ;
756 -> 757 ;
758 [label="gini = 0.5\nsamples = 3206\nvalue = [[1577, 1629]\n[1629, 1577]]"] ;
756 -> 758 ;
759 [label="부상병코드 <= 18.5\ngini = 0.411\nsamples = 1036\nvalue = [[736, 300]\n[300, 736]]"] ;
755 -> 759 ;
760 [label="gini = 0.377\nsamples = 817\nvalue = [[611, 206]\n[206, 611]]"] ;
759 -> 760 ;
761 [label="gini = 0.49\nsamples = 219\nvalue = [[125, 94]\n[94, 125]]"] ;
759 -> 761 ;
762 [label="진료과목코드 <= 8.5\ngini = 0.384\nsamples = 60056\nvalue = [[44492, 15564]\n[15564, 44492]]"] ;
740 -> 762 ;
763 [label="주상병코드 <= 10.5\ngini = 0.345\nsamples = 42984\nvalue = [[33457, 9527]\n[9527, 33457]]"] ;
762 -> 763 ;
764 [label="심결가산율 <= 2.5\ngini = 0.296\nsamples = 19146\nvalue = [[15686, 3460]\n[3460, 15686]]"] ;
763 -> 764 ;
765 [label="주상병코드 <= 8.5\ngini = 0.187\nsamples = 9325\nvalue = [[8351, 974]\n[974, 8351]]"] ;
764 -> 765 ;
766 [label="gini = 0.159\nsamples = 8171\nvalue = [[7461, 710]\n[710, 7461]]"] ;
765 -> 766 ;
767 [label="gini = 0.353\nsamples = 1154\nvalue = [[890, 264]\n[264, 890]]"] ;
765 -> 767 ;
768 [label="주상병코드 <= 5.5\ngini = 0.378\nsamples = 9821\nvalue = [[7335, 2486]\n[2486, 7335]]"] ;
764 -> 768 ;
769 [label="gini = 0.485\nsamples = 1364\nvalue = [[562, 802]\n[802, 562]]"] ;
768 -> 769 ;
770 [label="gini = 0.319\nsamples = 8457\nvalue = [[6773, 1684]\n[1684, 6773]]"] ;
768 -> 770 ;
771 [label="부상병코드 <= 9.5\ngini = 0.379\nsamples = 23838\nvalue = [[17771, 6067]\n[6067, 17771]]"] ;
763 -> 771 ;
772 [label="진료과목코드 <= 4.5\ngini = 0.214\nsamples = 3183\nvalue = [[2796, 387]\n[387, 2796]]"] ;
771 -> 772 ;
773 [label="gini = 0.307\nsamples = 349\nvalue = [[283, 66]\n[66, 283]]"] ;
772 -> 773 ;
774 [label="gini = 0.201\nsamples = 2834\nvalue = [[2513, 321]\n[321, 2513]]"] ;
772 -> 774 ;
775 [label="진료과목코드 <= 5.5\ngini = 0.399\nsamples = 20655\nvalue = [[14975, 5680]\n[5680, 14975]]"] ;
771 -> 775 ;
776 [label="gini = 0.422\nsamples = 14532\nvalue = [[10130, 4402]\n[4402, 10130]]"] ;
775 -> 776 ;
777 [label="gini = 0.33\nsamples = 6123\nvalue = [[4845, 1278]\n[1278, 4845]]"] ;
775 -> 777 ;
778 [label="심결가산율 <= 2.5\ngini = 0.457\nsamples = 17072\nvalue = [[11035, 6037]\n[6037, 11035]]"] ;
762 -> 778 ;
779 [label="주상병코드 <= 12.5\ngini = 0.482\nsamples = 11069\nvalue = [[6587, 4482]\n[4482, 6587]]"] ;
778 -> 779 ;
780 [label="주상병코드 <= 6.5\ngini = 0.474\nsamples = 9923\nvalue = [[6084, 3839]\n[3839, 6084]]"] ;
779 -> 780 ;
781 [label="gini = 0.076\nsamples = 227\nvalue = [[218, 9]\n[9, 218]]"] ;
780 -> 781 ;
782 [label="gini = 0.478\nsamples = 9696\nvalue = [[5866, 3830]\n[3830, 5866]]"] ;
780 -> 782 ;
783 [label="연령대코드 <= 10.5\ngini = 0.493\nsamples = 1146\nvalue = [[503, 643]\n[643, 503]]"] ;
779 -> 783 ;
784 [label="gini = 0.498\nsamples = 829\nvalue = [[388, 441]\n[441, 388]]"] ;
783 -> 784 ;
785 [label="gini = 0.462\nsamples = 317\nvalue = [[115, 202]\n[202, 115]]"] ;
783 -> 785 ;
786 [label="연령대코드 <= 9.5\ngini = 0.384\nsamples = 6003\nvalue = [[4448, 1555]\n[1555, 4448]]"] ;
778 -> 786 ;
787 [label="심결가산율 <= 3.5\ngini = 0.349\nsamples = 5249\nvalue = [[4065, 1184]\n[1184, 4065]]"] ;
786 -> 787 ;
788 [label="gini = 0.382\nsamples = 3841\nvalue = [[2853, 988]\n[988, 2853]]"] ;
787 -> 788 ;
789 [label="gini = 0.24\nsamples = 1408\nvalue = [[1212, 196]\n[196, 1212]]"] ;
787 -> 789 ;
790 [label="심결가산율 <= 3.5\ngini = 0.5\nsamples = 754\nvalue = [[383, 371]\n[371, 383]]"] ;
786 -> 790 ;
791 [label="gini = 0.496\nsamples = 518\nvalue = [[235, 283]\n[283, 235]]"] ;
790 -> 791 ;
792 [label="gini = 0.468\nsamples = 236\nvalue = [[148, 88]\n[88, 148]]"] ;
790 -> 792 ;
793 [label="주상병코드 <= 15.5\ngini = 0.296\nsamples = 31642\nvalue = [[25934, 5708]\n[5708, 25934]]"] ;
739 -> 793 ;
794 [label="부상병코드 <= 22.0\ngini = 0.083\nsamples = 4900\nvalue = [[4688, 212]\n[212, 4688]]"] ;
793 -> 794 ;
795 [label="부상병코드 <= 13.5\ngini = 0.064\nsamples = 4247\nvalue = [[4107, 140]\n[140, 4107]]"] ;
794 -> 795 ;
796 [label="부상병코드 <= 8.5\ngini = 0.19\nsamples = 621\nvalue = [[555, 66]\n[66, 555]]"] ;
795 -> 796 ;
797 [label="gini = 0.156\nsamples = 247\nvalue = [[226, 21]\n[21, 226]]"] ;
796 -> 797 ;
798 [label="gini = 0.212\nsamples = 374\nvalue = [[329, 45]\n[45, 329]]"] ;
796 -> 798 ;
799 [label="성별코드 <= 1.5\ngini = 0.04\nsamples = 3626\nvalue = [[3552, 74]\n[74, 3552]]"] ;
795 -> 799 ;
800 [label="gini = 0.149\nsamples = 234\nvalue = [[215, 19]\n[19, 215]]"] ;
799 -> 800 ;
801 [label="부상병코드 <= 14.5\ngini = 0.032\nsamples = 3392\nvalue = [[3337, 55]\n[55, 3337]]"] ;
799 -> 801 ;
802 [label="gini = 0.026\nsamples = 2942\nvalue = [[2903, 39]\n[39, 2903]]"] ;
801 -> 802 ;
803 [label="gini = 0.069\nsamples = 450\nvalue = [[434, 16]\n[16, 434]]"] ;
801 -> 803 ;
804 [label="연령대코드 <= 6.5\ngini = 0.196\nsamples = 653\nvalue = [[581, 72]\n[72, 581]]"] ;
794 -> 804 ;
805 [label="gini = 0.085\nsamples = 225\nvalue = [[215, 10]\n[10, 215]]"] ;
804 -> 805 ;
806 [label="시도코드 <= 38.5\ngini = 0.248\nsamples = 428\nvalue = [[366, 62]\n[62, 366]]"] ;
804 -> 806 ;
807 [label="gini = 0.262\nsamples = 226\nvalue = [[191, 35]\n[35, 191]]"] ;
806 -> 807 ;
808 [label="gini = 0.232\nsamples = 202\nvalue = [[175, 27]\n[27, 175]]"] ;
806 -> 808 ;
809 [label="주상병코드 <= 17.5\ngini = 0.327\nsamples = 26742\nvalue = [[21246, 5496]\n[5496, 21246]]"] ;
793 -> 809 ;
810 [label="진료과목코드 <= 1.5\ngini = 0.466\nsamples = 5072\nvalue = [[3199, 1873]\n[1873, 3199]]"] ;
809 -> 810 ;
811 [label="시도코드 <= 44.5\ngini = 0.499\nsamples = 2190\nvalue = [[1153, 1037]\n[1037, 1153]]"] ;
810 -> 811 ;
812 [label="부상병코드 <= 8.5\ngini = 0.499\nsamples = 1608\nvalue = [[778, 830]\n[830, 778]]"] ;
811 -> 812 ;
813 [label="gini = 0.493\nsamples = 691\nvalue = [[385, 306]\n[306, 385]]"] ;
812 -> 813 ;
814 [label="gini = 0.49\nsamples = 917\nvalue = [[393, 524]\n[524, 393]]"] ;
812 -> 814 ;
815 [label="연령대코드 <= 12.5\ngini = 0.458\nsamples = 582\nvalue = [[375, 207]\n[207, 375]]"] ;
811 -> 815 ;
816 [label="gini = 0.483\nsamples = 341\nvalue = [[202, 139]\n[139, 202]]"] ;
815 -> 816 ;
817 [label="gini = 0.405\nsamples = 241\nvalue = [[173, 68]\n[68, 173]]"] ;
815 -> 817 ;
818 [label="부상병코드 <= 13.5\ngini = 0.412\nsamples = 2882\nvalue = [[2046, 836]\n[836, 2046]]"] ;
810 -> 818 ;
819 [label="연령대코드 <= 1.5\ngini = 0.439\nsamples = 2032\nvalue = [[1370, 662]\n[662, 1370]]"] ;
818 -> 819 ;
820 [label="gini = 0.329\nsamples = 516\nvalue = [[409, 107]\n[107, 409]]"] ;
819 -> 820 ;
821 [label="gini = 0.464\nsamples = 1516\nvalue = [[961, 555]\n[555, 961]]"] ;
819 -> 821 ;
822 [label="심결가산율 <= 3.5\ngini = 0.326\nsamples = 850\nvalue = [[676, 174]\n[174, 676]]"] ;
818 -> 822 ;
823 [label="gini = 0.367\nsamples = 504\nvalue = [[382, 122]\n[122, 382]]"] ;
822 -> 823 ;
824 [label="gini = 0.255\nsamples = 346\nvalue = [[294, 52]\n[52, 294]]"] ;
822 -> 824 ;
825 [label="부상병코드 <= 2.5\ngini = 0.278\nsamples = 21670\nvalue = [[18047, 3623]\n[3623, 18047]]"] ;
809 -> 825 ;
826 [label="진료과목코드 <= 6.5\ngini = 0.052\nsamples = 2644\nvalue = [[2573, 71]\n[71, 2573]]"] ;
825 -> 826 ;
827 [label="연령대코드 <= 11.5\ngini = 0.033\nsamples = 2394\nvalue = [[2354, 40]\n[40, 2354]]"] ;
826 -> 827 ;
828 [label="gini = 0.047\nsamples = 671\nvalue = [[655, 16]\n[16, 655]]"] ;
827 -> 828 ;
829 [label="gini = 0.027\nsamples = 1723\nvalue = [[1699, 24]\n[24, 1699]]"] ;
827 -> 829 ;
830 [label="gini = 0.217\nsamples = 250\nvalue = [[219, 31]\n[31, 219]]"] ;
826 -> 830 ;
831 [label="부상병코드 <= 14.5\ngini = 0.304\nsamples = 19026\nvalue = [[15474, 3552]\n[3552, 15474]]"] ;
825 -> 831 ;
832 [label="진료과목코드 <= 9.5\ngini = 0.36\nsamples = 8812\nvalue = [[6739, 2073]\n[2073, 6739]]"] ;
831 -> 832 ;
833 [label="gini = 0.327\nsamples = 8148\nvalue = [[6469, 1679]\n[1679, 6469]]"] ;
832 -> 833 ;
834 [label="gini = 0.483\nsamples = 664\nvalue = [[270, 394]\n[394, 270]]"] ;
832 -> 834 ;
835 [label="부상병코드 <= 15.5\ngini = 0.248\nsamples = 10214\nvalue = [[8735, 1479]\n[1479, 8735]]"] ;
831 -> 835 ;
836 [label="gini = 0.004\nsamples = 1071\nvalue = [[1069, 2]\n[2, 1069]]"] ;
835 -> 836 ;
837 [label="gini = 0.271\nsamples = 9143\nvalue = [[7666, 1477]\n[1477, 7666]]"] ;
835 -> 837 ;
838 [label="진료과목코드 <= 12.5\ngini = 0.495\nsamples = 9710\nvalue = [[5342, 4368]\n[4368, 5342]]"] ;
738 -> 838 ;
839 [label="부상병코드 <= 7.5\ngini = 0.49\nsamples = 2794\nvalue = [[1195, 1599]\n[1599, 1195]]"] ;
838 -> 839 ;
840 [label="심결가산율 <= 3.5\ngini = 0.474\nsamples = 2360\nvalue = [[909, 1451]\n[1451, 909]]"] ;
839 -> 840 ;
841 [label="연령대코드 <= 12.5\ngini = 0.446\nsamples = 1418\nvalue = [[475, 943]\n[943, 475]]"] ;
840 -> 841 ;
842 [label="심결가산율 <= 2.5\ngini = 0.397\nsamples = 713\nvalue = [[195, 518]\n[518, 195]]"] ;
841 -> 842 ;
843 [label="gini = 0.349\nsamples = 422\nvalue = [[95, 327]\n[327, 95]]"] ;
842 -> 843 ;
844 [label="gini = 0.451\nsamples = 291\nvalue = [[100, 191]\n[191, 100]]"] ;
842 -> 844 ;
845 [label="심결가산율 <= 2.5\ngini = 0.479\nsamples = 705\nvalue = [[280, 425]\n[425, 280]]"] ;
841 -> 845 ;
846 [label="gini = 0.494\nsamples = 372\nvalue = [[166, 206]\n[206, 166]]"] ;
845 -> 846 ;
847 [label="gini = 0.45\nsamples = 333\nvalue = [[114, 219]\n[219, 114]]"] ;
845 -> 847 ;
848 [label="시도코드 <= 41.5\ngini = 0.497\nsamples = 942\nvalue = [[434, 508]\n[508, 434]]"] ;
840 -> 848 ;
849 [label="시도코드 <= 38.5\ngini = 0.49\nsamples = 654\nvalue = [[280, 374]\n[374, 280]]"] ;
848 -> 849 ;
850 [label="연령대코드 <= 12.5\ngini = 0.496\nsamples = 440\nvalue = [[201, 239]\n[239, 201]]"] ;
849 -> 850 ;
851 [label="gini = 0.493\nsamples = 238\nvalue = [[105, 133]\n[133, 105]]"] ;
850 -> 851 ;
852 [label="gini = 0.499\nsamples = 202\nvalue = [[96, 106]\n[106, 96]]"] ;
850 -> 852 ;
853 [label="gini = 0.466\nsamples = 214\nvalue = [[79, 135]\n[135, 79]]"] ;
849 -> 853 ;
854 [label="gini = 0.498\nsamples = 288\nvalue = [[154, 134]\n[134, 154]]"] ;
848 -> 854 ;
855 [label="연령대코드 <= 12.5\ngini = 0.449\nsamples = 434\nvalue = [[286, 148]\n[148, 286]]"] ;
839 -> 855 ;
856 [label="gini = 0.483\nsamples = 231\nvalue = [[137, 94]\n[94, 137]]"] ;
855 -> 856 ;
857 [label="gini = 0.39\nsamples = 203\nvalue = [[149, 54]\n[54, 149]]"] ;
855 -> 857 ;
858 [label="주상병코드 <= 9.5\ngini = 0.48\nsamples = 6916\nvalue = [[4147, 2769]\n[2769, 4147]]"] ;
838 -> 858 ;
859 [label="심결가산율 <= 2.5\ngini = 0.446\nsamples = 3195\nvalue = [[2122, 1073]\n[1073, 2122]]"] ;
858 -> 859 ;
860 [label="시도코드 <= 36.0\ngini = 0.497\nsamples = 769\nvalue = [[412, 357]\n[357, 412]]"] ;
859 -> 860 ;
861 [label="gini = 0.477\nsamples = 303\nvalue = [[119, 184]\n[184, 119]]"] ;
860 -> 861 ;
862 [label="시도코드 <= 45.5\ngini = 0.467\nsamples = 466\nvalue = [[293, 173]\n[173, 293]]"] ;
860 -> 862 ;
863 [label="gini = 0.447\nsamples = 237\nvalue = [[157, 80]\n[80, 157]]"] ;
862 -> 863 ;
864 [label="gini = 0.482\nsamples = 229\nvalue = [[136, 93]\n[93, 136]]"] ;
862 -> 864 ;
865 [label="부상병코드 <= 12.5\ngini = 0.416\nsamples = 2426\nvalue = [[1710, 716]\n[716, 1710]]"] ;
859 -> 865 ;
866 [label="부상병코드 <= 6.5\ngini = 0.427\nsamples = 2167\nvalue = [[1497, 670]\n[670, 1497]]"] ;
865 -> 866 ;
867 [label="gini = 0.277\nsamples = 211\nvalue = [[176, 35]\n[35, 176]]"] ;
866 -> 867 ;
868 [label="연령대코드 <= 13.5\ngini = 0.438\nsamples = 1956\nvalue = [[1321, 635]\n[635, 1321]]"] ;
866 -> 868 ;
869 [label="gini = 0.424\nsamples = 1695\nvalue = [[1178, 517]\n[517, 1178]]"] ;
868 -> 869 ;
870 [label="gini = 0.495\nsamples = 261\nvalue = [[143, 118]\n[118, 143]]"] ;
868 -> 870 ;
871 [label="gini = 0.292\nsamples = 259\nvalue = [[213, 46]\n[46, 213]]"] ;
865 -> 871 ;
872 [label="주상병코드 <= 11.5\ngini = 0.496\nsamples = 3721\nvalue = [[2025, 1696]\n[1696, 2025]]"] ;
858 -> 872 ;
873 [label="부상병코드 <= 10.5\ngini = 0.303\nsamples = 901\nvalue = [[168, 733]\n[733, 168]]"] ;
872 -> 873 ;
874 [label="연령대코드 <= 10.5\ngini = 0.38\nsamples = 435\nvalue = [[111, 324]\n[324, 111]]"] ;
873 -> 874 ;
875 [label="gini = 0.414\nsamples = 232\nvalue = [[68, 164]\n[164, 68]]"] ;
874 -> 875 ;
876 [label="gini = 0.334\nsamples = 203\nvalue = [[43, 160]\n[160, 43]]"] ;
874 -> 876 ;
877 [label="연령대코드 <= 8.5\ngini = 0.215\nsamples = 466\nvalue = [[57, 409]\n[409, 57]]"] ;
873 -> 877 ;
878 [label="gini = 0.172\nsamples = 200\nvalue = [[19, 181]\n[181, 19]]"] ;
877 -> 878 ;
879 [label="gini = 0.245\nsamples = 266\nvalue = [[38, 228]\n[228, 38]]"] ;
877 -> 879 ;
880 [label="연령대코드 <= 14.5\ngini = 0.45\nsamples = 2820\nvalue = [[1857, 963]\n[963, 1857]]"] ;
872 -> 880 ;
881 [label="주상병코드 <= 16.5\ngini = 0.428\nsamples = 2361\nvalue = [[1627, 734]\n[734, 1627]]"] ;
880 -> 881 ;
882 [label="부상병코드 <= 12.5\ngini = 0.408\nsamples = 1847\nvalue = [[1319, 528]\n[528, 1319]]"] ;
881 -> 882 ;
883 [label="gini = 0.334\nsamples = 647\nvalue = [[510, 137]\n[137, 510]]"] ;
882 -> 883 ;
884 [label="gini = 0.439\nsamples = 1200\nvalue = [[809, 391]\n[391, 809]]"] ;
882 -> 884 ;
885 [label="주상병코드 <= 17.5\ngini = 0.48\nsamples = 514\nvalue = [[308, 206]\n[206, 308]]"] ;
881 -> 885 ;
886 [label="gini = 0.493\nsamples = 224\nvalue = [[99, 125]\n[125, 99]]"] ;
885 -> 886 ;
887 [label="gini = 0.403\nsamples = 290\nvalue = [[209, 81]\n[81, 209]]"] ;
885 -> 887 ;
888 [label="시도코드 <= 33.5\ngini = 0.5\nsamples = 459\nvalue = [[230, 229]\n[229, 230]]"] ;
880 -> 888 ;
889 [label="gini = 0.5\nsamples = 201\nvalue = [[102, 99]\n[99, 102]]"] ;
888 -> 889 ;
890 [label="gini = 0.5\nsamples = 258\nvalue = [[128, 130]\n[130, 128]]"] ;
888 -> 890 ;
891 [label="주상병코드 <= 8.5\ngini = 0.217\nsamples = 29958\nvalue = [[26246, 3712]\n[3712, 26246]]"] ;
579 -> 891 ;
892 [label="심결가산율 <= 2.5\ngini = 0.165\nsamples = 13118\nvalue = [[11930, 1188]\n[1188, 11930]]"] ;
891 -> 892 ;
893 [label="주상병코드 <= 1.5\ngini = 0.101\nsamples = 7467\nvalue = [[7069, 398]\n[398, 7069]]"] ;
892 -> 893 ;
894 [label="gini = 0.315\nsamples = 286\nvalue = [[230, 56]\n[56, 230]]"] ;
893 -> 894 ;
895 [label="주상병코드 <= 2.5\ngini = 0.091\nsamples = 7181\nvalue = [[6839, 342]\n[342, 6839]]"] ;
893 -> 895 ;
896 [label="시도코드 <= 46.5\ngini = 0.032\nsamples = 1184\nvalue = [[1165, 19]\n[19, 1165]]"] ;
895 -> 896 ;
897 [label="연령대코드 <= 12.5\ngini = 0.018\nsamples = 971\nvalue = [[962, 9]\n[9, 962]]"] ;
896 -> 897 ;
898 [label="시도코드 <= 27.5\ngini = 0.027\nsamples = 589\nvalue = [[581, 8]\n[8, 581]]"] ;
897 -> 898 ;
899 [label="gini = 0.01\nsamples = 207\nvalue = [[206, 1]\n[1, 206]]"] ;
898 -> 899 ;
900 [label="gini = 0.036\nsamples = 382\nvalue = [[375, 7]\n[7, 375]]"] ;
898 -> 900 ;
901 [label="gini = 0.005\nsamples = 382\nvalue = [[381, 1]\n[1, 381]]"] ;
897 -> 901 ;
902 [label="gini = 0.089\nsamples = 213\nvalue = [[203, 10]\n[10, 203]]"] ;
896 -> 902 ;
903 [label="주상병코드 <= 4.5\ngini = 0.102\nsamples = 5997\nvalue = [[5674, 323]\n[323, 5674]]"] ;
895 -> 903 ;
904 [label="gini = 0.327\nsamples = 291\nvalue = [[231, 60]\n[60, 231]]"] ;
903 -> 904 ;
905 [label="연령대코드 <= 11.5\ngini = 0.088\nsamples = 5706\nvalue = [[5443, 263]\n[263, 5443]]"] ;
903 -> 905 ;
906 [label="시도코드 <= 29.5\ngini = 0.139\nsamples = 1545\nvalue = [[1429, 116]\n[116, 1429]]"] ;
905 -> 906 ;
907 [label="시도코드 <= 26.5\ngini = 0.092\nsamples = 848\nvalue = [[807, 41]\n[41, 807]]"] ;
906 -> 907 ;
908 [label="gini = 0.173\nsamples = 324\nvalue = [[293, 31]\n[31, 293]]"] ;
907 -> 908 ;
909 [label="성별코드 <= 1.5\ngini = 0.037\nsamples = 524\nvalue = [[514, 10]\n[10, 514]]"] ;
907 -> 909 ;
910 [label="gini = 0.019\nsamples = 310\nvalue = [[307, 3]\n[3, 307]]"] ;
909 -> 910 ;
911 [label="gini = 0.063\nsamples = 214\nvalue = [[207, 7]\n[7, 207]]"] ;
909 -> 911 ;
912 [label="연령대코드 <= 7.5\ngini = 0.192\nsamples = 697\nvalue = [[622, 75]\n[75, 622]]"] ;
906 -> 912 ;
913 [label="gini = 0.268\nsamples = 226\nvalue = [[190, 36]\n[36, 190]]"] ;
912 -> 913 ;
914 [label="시도코드 <= 43.5\ngini = 0.152\nsamples = 471\nvalue = [[432, 39]\n[39, 432]]"] ;
912 -> 914 ;
915 [label="gini = 0.209\nsamples = 270\nvalue = [[238, 32]\n[32, 238]]"] ;
914 -> 915 ;
916 [label="gini = 0.067\nsamples = 201\nvalue = [[194, 7]\n[7, 194]]"] ;
914 -> 916 ;
917 [label="시도코드 <= 47.5\ngini = 0.068\nsamples = 4161\nvalue = [[4014, 147]\n[147, 4014]]"] ;
905 -> 917 ;
918 [label="부상병코드 <= 4.5\ngini = 0.063\nsamples = 3829\nvalue = [[3705, 124]\n[124, 3705]]"] ;
917 -> 918 ;
919 [label="gini = 0.122\nsamples = 323\nvalue = [[302, 21]\n[21, 302]]"] ;
918 -> 919 ;
920 [label="부상병코드 <= 9.5\ngini = 0.057\nsamples = 3506\nvalue = [[3403, 103]\n[103, 3403]]"] ;
918 -> 920 ;
921 [label="gini = 0.048\nsamples = 2836\nvalue = [[2766, 70]\n[70, 2766]]"] ;
920 -> 921 ;
922 [label="gini = 0.094\nsamples = 670\nvalue = [[637, 33]\n[33, 637]]"] ;
920 -> 922 ;
923 [label="gini = 0.129\nsamples = 332\nvalue = [[309, 23]\n[23, 309]]"] ;
917 -> 923 ;
924 [label="진료과목코드 <= 23.5\ngini = 0.241\nsamples = 5651\nvalue = [[4861, 790]\n[790, 4861]]"] ;
892 -> 924 ;
925 [label="진료과목코드 <= 22.5\ngini = 0.482\nsamples = 1457\nvalue = [[868, 589]\n[589, 868]]"] ;
924 -> 925 ;
926 [label="주상병코드 <= 6.5\ngini = 0.457\nsamples = 1053\nvalue = [[681, 372]\n[372, 681]]"] ;
925 -> 926 ;
927 [label="시도코드 <= 42.5\ngini = 0.489\nsamples = 681\nvalue = [[392, 289]\n[289, 392]]"] ;
926 -> 927 ;
928 [label="연령대코드 <= 11.5\ngini = 0.499\nsamples = 471\nvalue = [[243, 228]\n[228, 243]]"] ;
927 -> 928 ;
929 [label="gini = 0.491\nsamples = 254\nvalue = [[110, 144]\n[144, 110]]"] ;
928 -> 929 ;
930 [label="gini = 0.475\nsamples = 217\nvalue = [[133, 84]\n[84, 133]]"] ;
928 -> 930 ;
931 [label="gini = 0.412\nsamples = 210\nvalue = [[149, 61]\n[61, 149]]"] ;
927 -> 931 ;
932 [label="gini = 0.347\nsamples = 372\nvalue = [[289, 83]\n[83, 289]]"] ;
926 -> 932 ;
933 [label="gini = 0.497\nsamples = 404\nvalue = [[187, 217]\n[217, 187]]"] ;
925 -> 933 ;
934 [label="연령대코드 <= 9.5\ngini = 0.091\nsamples = 4194\nvalue = [[3993, 201]\n[201, 3993]]"] ;
924 -> 934 ;
935 [label="연령대코드 <= 2.5\ngini = 0.116\nsamples = 1957\nvalue = [[1836, 121]\n[121, 1836]]"] ;
934 -> 935 ;
936 [label="주상병코드 <= 0.5\ngini = 0.056\nsamples = 522\nvalue = [[507, 15]\n[15, 507]]"] ;
935 -> 936 ;
937 [label="gini = 0.039\nsamples = 303\nvalue = [[297, 6]\n[6, 297]]"] ;
936 -> 937 ;
938 [label="gini = 0.079\nsamples = 219\nvalue = [[210, 9]\n[9, 210]]"] ;
936 -> 938 ;
939 [label="심결가산율 <= 3.5\ngini = 0.137\nsamples = 1435\nvalue = [[1329, 106]\n[106, 1329]]"] ;
935 -> 939 ;
940 [label="부상병코드 <= 12.5\ngini = 0.153\nsamples = 1079\nvalue = [[989, 90]\n[90, 989]]"] ;
939 -> 940 ;
941 [label="연령대코드 <= 6.5\ngini = 0.185\nsamples = 493\nvalue = [[442, 51]\n[51, 442]]"] ;
940 -> 941 ;
942 [label="gini = 0.173\nsamples = 262\nvalue = [[237, 25]\n[25, 237]]"] ;
941 -> 942 ;
943 [label="gini = 0.2\nsamples = 231\nvalue = [[205, 26]\n[26, 205]]"] ;
941 -> 943 ;
944 [label="주상병코드 <= 0.5\ngini = 0.124\nsamples = 586\nvalue = [[547, 39]\n[39, 547]]"] ;
940 -> 944 ;
945 [label="gini = 0.14\nsamples = 383\nvalue = [[354, 29]\n[29, 354]]"] ;
944 -> 945 ;
946 [label="gini = 0.094\nsamples = 203\nvalue = [[193, 10]\n[10, 193]]"] ;
944 -> 946 ;
947 [label="gini = 0.086\nsamples = 356\nvalue = [[340, 16]\n[16, 340]]"] ;
939 -> 947 ;
948 [label="주상병코드 <= 5.5\ngini = 0.069\nsamples = 2237\nvalue = [[2157, 80]\n[80, 2157]]"] ;
934 -> 948 ;
949 [label="시도코드 <= 41.5\ngini = 0.084\nsamples = 1180\nvalue = [[1128, 52]\n[52, 1128]]"] ;
948 -> 949 ;
950 [label="부상병코드 <= 12.5\ngini = 0.067\nsamples = 778\nvalue = [[751, 27]\n[27, 751]]"] ;
949 -> 950 ;
951 [label="gini = 0.099\nsamples = 400\nvalue = [[379, 21]\n[21, 379]]"] ;
950 -> 951 ;
952 [label="gini = 0.031\nsamples = 378\nvalue = [[372, 6]\n[6, 372]]"] ;
950 -> 952 ;
953 [label="시도코드 <= 45.5\ngini = 0.117\nsamples = 402\nvalue = [[377, 25]\n[25, 377]]"] ;
949 -> 953 ;
954 [label="gini = 0.104\nsamples = 200\nvalue = [[189, 11]\n[11, 189]]"] ;
953 -> 954 ;
955 [label="gini = 0.129\nsamples = 202\nvalue = [[188, 14]\n[14, 188]]"] ;
953 -> 955 ;
956 [label="부상병코드 <= 10.5\ngini = 0.052\nsamples = 1057\nvalue = [[1029, 28]\n[28, 1029]]"] ;
948 -> 956 ;
957 [label="주상병코드 <= 7.5\ngini = 0.065\nsamples = 535\nvalue = [[517, 18]\n[18, 517]]"] ;
956 -> 957 ;
958 [label="gini = 0.086\nsamples = 289\nvalue = [[276, 13]\n[13, 276]]"] ;
957 -> 958 ;
959 [label="gini = 0.04\nsamples = 246\nvalue = [[241, 5]\n[5, 241]]"] ;
957 -> 959 ;
960 [label="연령대코드 <= 12.5\ngini = 0.038\nsamples = 522\nvalue = [[512, 10]\n[10, 512]]"] ;
956 -> 960 ;
961 [label="gini = 0.015\nsamples = 263\nvalue = [[261, 2]\n[2, 261]]"] ;
960 -> 961 ;
962 [label="gini = 0.06\nsamples = 259\nvalue = [[251, 8]\n[8, 251]]"] ;
960 -> 962 ;
963 [label="진료과목코드 <= 22.5\ngini = 0.255\nsamples = 16840\nvalue = [[14316, 2524]\n[2524, 14316]]"] ;
891 -> 963 ;
964 [label="심결가산율 <= 2.5\ngini = 0.401\nsamples = 2565\nvalue = [[1854, 711]\n[711, 1854]]"] ;
963 -> 964 ;
965 [label="부상병코드 <= 15.5\ngini = 0.309\nsamples = 1794\nvalue = [[1451, 343]\n[343, 1451]]"] ;
964 -> 965 ;
966 [label="부상병코드 <= 9.5\ngini = 0.4\nsamples = 977\nvalue = [[707, 270]\n[270, 707]]"] ;
965 -> 966 ;
967 [label="연령대코드 <= 11.5\ngini = 0.179\nsamples = 464\nvalue = [[418, 46]\n[46, 418]]"] ;
966 -> 967 ;
968 [label="gini = 0.233\nsamples = 201\nvalue = [[174, 27]\n[27, 174]]"] ;
967 -> 968 ;
969 [label="gini = 0.134\nsamples = 263\nvalue = [[244, 19]\n[19, 244]]"] ;
967 -> 969 ;
970 [label="연령대코드 <= 12.5\ngini = 0.492\nsamples = 513\nvalue = [[289, 224]\n[224, 289]]"] ;
966 -> 970 ;
971 [label="gini = 0.5\nsamples = 274\nvalue = [[141, 133]\n[133, 141]]"] ;
970 -> 971 ;
972 [label="gini = 0.472\nsamples = 239\nvalue = [[148, 91]\n[91, 148]]"] ;
970 -> 972 ;
973 [label="연령대코드 <= 2.5\ngini = 0.163\nsamples = 817\nvalue = [[744, 73]\n[73, 744]]"] ;
965 -> 973 ;
974 [label="성별코드 <= 1.5\ngini = 0.067\nsamples = 519\nvalue = [[501, 18]\n[18, 501]]"] ;
973 -> 974 ;
975 [label="gini = 0.017\nsamples = 229\nvalue = [[227, 2]\n[2, 227]]"] ;
974 -> 975 ;
976 [label="gini = 0.104\nsamples = 290\nvalue = [[274, 16]\n[16, 274]]"] ;
974 -> 976 ;
977 [label="gini = 0.301\nsamples = 298\nvalue = [[243, 55]\n[55, 243]]"] ;
973 -> 977 ;
978 [label="주상병코드 <= 17.5\ngini = 0.499\nsamples = 771\nvalue = [[403, 368]\n[368, 403]]"] ;
964 -> 978 ;
979 [label="성별코드 <= 1.5\ngini = 0.479\nsamples = 534\nvalue = [[212, 322]\n[322, 212]]"] ;
978 -> 979 ;
980 [label="gini = 0.492\nsamples = 325\nvalue = [[142, 183]\n[183, 142]]"] ;
979 -> 980 ;
981 [label="gini = 0.446\nsamples = 209\nvalue = [[70, 139]\n[139, 70]]"] ;
979 -> 981 ;
982 [label="gini = 0.313\nsamples = 237\nvalue = [[191, 46]\n[46, 191]]"] ;
978 -> 982 ;
983 [label="주상병코드 <= 11.5\ngini = 0.222\nsamples = 14275\nvalue = [[12462, 1813]\n[1813, 12462]]"] ;
963 -> 983 ;
984 [label="심결가산율 <= 2.5\ngini = 0.32\nsamples = 3776\nvalue = [[3022, 754]\n[754, 3022]]"] ;
983 -> 984 ;
985 [label="부상병코드 <= 9.5\ngini = 0.497\nsamples = 693\nvalue = [[375, 318]\n[318, 375]]"] ;
984 -> 985 ;
986 [label="gini = 0.47\nsamples = 397\nvalue = [[247, 150]\n[150, 247]]"] ;
985 -> 986 ;
987 [label="gini = 0.491\nsamples = 296\nvalue = [[128, 168]\n[168, 128]]"] ;
985 -> 987 ;
988 [label="부상병코드 <= 12.5\ngini = 0.243\nsamples = 3083\nvalue = [[2647, 436]\n[436, 2647]]"] ;
984 -> 988 ;
989 [label="심결가산율 <= 3.5\ngini = 0.305\nsamples = 1837\nvalue = [[1492, 345]\n[345, 1492]]"] ;
988 -> 989 ;
990 [label="연령대코드 <= 3.5\ngini = 0.351\nsamples = 1317\nvalue = [[1018, 299]\n[299, 1018]]"] ;
989 -> 990 ;
991 [label="gini = 0.198\nsamples = 386\nvalue = [[343, 43]\n[43, 343]]"] ;
990 -> 991 ;
992 [label="주상병코드 <= 9.5\ngini = 0.399\nsamples = 931\nvalue = [[675, 256]\n[256, 675]]"] ;
990 -> 992 ;
993 [label="gini = 0.447\nsamples = 394\nvalue = [[261, 133]\n[133, 261]]"] ;
992 -> 993 ;
994 [label="연령대코드 <= 10.5\ngini = 0.353\nsamples = 537\nvalue = [[414, 123]\n[123, 414]]"] ;
992 -> 994 ;
995 [label="gini = 0.282\nsamples = 294\nvalue = [[244, 50]\n[50, 244]]"] ;
994 -> 995 ;
996 [label="gini = 0.42\nsamples = 243\nvalue = [[170, 73]\n[73, 170]]"] ;
994 -> 996 ;
997 [label="시도코드 <= 29.5\ngini = 0.161\nsamples = 520\nvalue = [[474, 46]\n[46, 474]]"] ;
989 -> 997 ;
998 [label="gini = 0.219\nsamples = 232\nvalue = [[203, 29]\n[29, 203]]"] ;
997 -> 998 ;
999 [label="gini = 0.111\nsamples = 288\nvalue = [[271, 17]\n[17, 271]]"] ;
997 -> 999 ;
1000 [label="연령대코드 <= 6.5\ngini = 0.135\nsamples = 1246\nvalue = [[1155, 91]\n[91, 1155]]"] ;
988 -> 1000 ;
